-0.09448395740152236 -0.8671211811113461 -0.9145461221526592 -0.8759292757463661 
0.093893982709592 -1.066437859959129 -0.7983029689865109 -0.48852601664750284 
-0.04566033046839237 -1.1917549155213523 -1.0576052892474006 -0.9894081434253087 
0.16262720031502367 -0.5025047131786609 -1.0258124983960935 -0.8619664705048818 
-0.17043719632627008 -0.9299775787937005 -0.9387779480250747 -0.796083973298909 
0.19561498008846828 -1.0628579422289945 -0.757889651488567 0.1331671245506365 
0.003319213922987339 -0.8847761190499346 -1.0880644137764803 -0.8405246023578794 
0.4461148903274853 -0.9470999008586402 -0.9926339120155334 -0.8491668925537813 
0.29657329547724 -0.8228792937996753 -1.1450976943515707 -1.1075296055162178 
0.4853793062712481 -0.6581353813439745 -0.8096557246618521 -0.7631996059186192 
0.2617697436895944 -1.0749940058362304 -0.8859747488760821 -0.7760492323048496 
0.12313760223217307 -0.8775019780566863 -1.0549524077038992 -0.8398693041725463 
0.1383177648969805 -1.208550826614045 -0.8640256131716821 -0.17434462954752641 
0.3488441184390055 -0.9109346921831727 -0.9509305106037628 -0.7853675190017604 
0.38367294306329636 -0.784252721918171 -1.113159199103409 -0.8532742974645751 
0.4582232776715893 -0.5202563380674056 -0.8788861292702018 -0.8948192180209131 
0.7121844493500143 -0.8047497910516256 -0.9489587000358997 0.12806498073311065 
0.13819658189923825 -0.4922045753700868 -0.9936300138295623 -0.9944528263035262 
0.2299882079537882 -0.9781486775338484 -0.917470217869478 -0.5220198783258087 
0.39535291390255023 -0.7679246794405734 -0.7634713032035959 -1.0115987856651902 
0.24440992590888969 -1.0320474785022993 -1.026891827771218 -0.8753260855623834 
0.11517596651722889 -0.8719719599718131 -0.9758631260511134 -0.5907867831788127 
0.18194364593201556 -1.0133803647511068 -1.0337969343704112 -0.6689446068226739 
0.07885505456029351 -0.9760019309957981 -0.8523630772974921 -0.992978055228206 
0.3446966538013788 -1.0360221765046225 -0.8941602172299626 -0.8209482887565416 
0.3753201519081055 0.04117854992610522 -0.7843730727685998 -0.910857324485748 
0.3775665242336558 -0.953325374097388 -0.8664581737002908 -0.6945293401253047 
0.5160336274193384 -0.65799853815044 -0.8206420931538215 -0.6594612461379997 
0.4784205865578258 -0.836961155443081 -1.0319835317618207 -0.6962585393829396 
0.1978764564575851 -0.9288951374693922 -1.0197437913891352 -0.869022064368227 
0.7736660370916828 -1.2760261974294322 -0.7838284983446432 -0.28838614631692977 
0.21619675254249698 -0.9651734078546735 -1.0483235329012253 -1.0222268346026866 
0.42858663865818336 -0.9350277407871803 -1.0029838158200546 -0.5686646315644378 
0.5115119036818011 -0.5986772472890093 -0.8705419814129229 -0.8662676516374958 
0.19838001445095405 -0.8497037553904635 -1.027449625576906 -0.8424121787513975 
0.11090317291017487 -1.3185763749318604 -0.7742779983057172 -0.36558824304592685 
0.35008078918603647 -0.9448170094366347 -0.9654676571146383 -0.49611445049492303 
-0.07488084523359122 -0.9758998831166164 -0.895588416915793 -0.6078967972482172 
0.03813858885436998 -1.1723521598396505 -1.1663868765481054 0.1303880349236437 
0.28718292129287276 -0.7547826946298337 -0.8200776663666265 -0.7160745001086911 
0.2948508019841157 -0.8358741070148337 -1.038119939058531 -0.9063759883252649 
0.3643596361013132 -0.913997295788782 -0.9801854708055756 0.040392675633115924 
0.09896330392106252 -0.9813359953093184 -0.9599328229800957 -0.8604488911692294 
0.7409503198129186 -0.4693437913306916 -1.2160015856010182 -0.2469490025754477 
0.7389958363889003 -0.8614143324047417 -0.765958309061115 -0.5879567034201633 
0.435612403122269 -0.45597142720449413 -1.1768581636857012 -0.6596264351024609 
0.4271575099460017 -0.8017208976817416 -0.8236358340967301 -0.22201710555246867 
0.29510237231513486 -0.8022219968705973 -1.1083636052987873 -0.9876282971167115 
0.4526163147452704 -1.1220828742868756 -1.0309757839782943 -0.46987609633944666 
0.2415439265101139 -0.9999897677291619 -1.0428291487986054 -0.8832468699300074 
0.32290219510641965 -0.8809429248977472 -1.004398639773892 -0.8758236205978104 
0.01580743902057311 -0.6169097419376485 -1.116812129119967 -0.43624633704326266 
-0.007473853156606581 -1.007075310909671 -1.0070110633415 -0.9484188929354438 
0.5148358636959168 -0.9636636251631946 -0.8474615333659099 -0.11177273953676892 
0.43311828717367057 -0.8193562105279218 -0.9373083772045905 -0.7027964639957691 
0.3351327808685518 -1.0177662451058613 -0.929034149979624 -0.8084642838147571 
0.3570823094836909 -0.7394251227916505 -0.9658285779495946 -0.9102033830187595 
0.33984138150563914 -0.6978860620244949 -0.8961970146002262 -0.9193622590167458 
0.6801919308834199 -0.9555241602125178 -0.9137694697374911 -0.11980778800118742 
0.1202525652714201 -0.526869261347982 -1.0352779759041442 -0.8641329650885359 
0.23137763834034036 -0.9130076224704136 -0.9482883036617265 -0.7289245639079914 
-0.12924831062373765 -0.9040471367103843 -0.9742062810750846 -0.46371734484447785 
0.5401509482307691 -0.9841268636237456 -0.8636441361486114 -0.8360765265369152 
0.13304118788962335 -0.8147081392996286 -0.9482552143563835 -0.6354736190020065 
0.16610722928888982 -1.1068547021248019 -0.9393514220674458 -0.8815603879833391 
0.47994689675909796 -0.41829561286903133 -1.173518521491206 -0.8187843814751429 
0.158193144007159 -0.8836369474413815 -1.0002888620922046 -0.8337829313192708 
0.5006082006347797 -1.110938736992322 -0.9049238584006597 -0.46196934402050716 
0.4035613580946464 -1.0538875863589559 -0.8548981029876914 -0.4062667080320624 
0.088308055801186 -0.9538787553016651 -0.8477525055088139 -0.5120346606056818 
0.44183350553855094 -0.7699269651088663 -0.9912272922378565 -0.9928615630039427 
0.3086546610977902 -0.8539477215678288 -1.0465843416971263 -0.9689202742489574 
0.46245653588835733 -0.8514833316610452 -1.025146203230641 -0.6579264639449147 
0.3557561804743824 -1.1612077618982317 -1.0178618916051916 -0.6621813242510031 
-0.19577583072302293 -1.0981323806760366 -1.0337737180147515 -0.5372924138957211 
0.32419834777117074 -0.5312284506606885 -0.8282732830801501 -0.32597138011899246 
0.2258602098292466 -1.086981713380694 -1.0511261363814755 -0.9008590506114226 
0.511912145408691 -0.6599626957475644 -0.9495213888982157 -0.6209571212937384 
-0.11325826287478712 -1.1014800785835528 -1.1403158380319176 -0.31750262370235005 
-0.09399547164089475 -0.8461094565059275 -0.9761069542714056 -0.3457572814251092 
0.5221194116966249 -1.0197925962606107 -0.8976533314474496 -0.52196142534783 
-0.02706711111633519 -0.7983928330999658 -0.9333189994829277 -0.5412129494347465 
0.5615100018616492 -0.6538720983130031 -0.9033066891125239 -0.13493994039184343 
0.5605038261027192 -0.12071407592265819 -1.1221376013424993 -0.6801660615323516 
0.29581777567439554 -1.058530840577188 -0.8983556045073137 -0.6798301482806508 
0.2875279226072344 -1.092409705814857 -0.955060837847563 -0.9005834706228119 
0.21574244869694825 -1.0759754473841763 -1.0453831074460507 -0.5383564063330178 
0.3471043923020343 -0.96266860731684 -0.9488639939941683 -0.7637066390417598 
-0.08798022178203303 -0.9825750737558936 -1.043884636874113 -0.9890482545892706 
0.12017190036744996 -0.750920804922452 -0.9928844699470295 -0.9059373700809628 
0.4226375117669105 -0.9429002321162351 -1.0204447364163745 -0.6323214975858444 
0.5665310969920335 -0.6852943648332744 -0.8967856359863187 -0.8600454648483644 
0.3040469045322564 -1.0264425841789886 -0.7777565179907139 -0.5886602029982815 
0.500523339947262 -1.142560494768192 -0.8752586358934119 -0.6282207039929967 
0.33765095818497165 -0.5148324511637725 -0.9020309611358802 -0.9391712838483753 
0.505519911770044 -0.7407802582594094 -0.9647258744103195 -0.5374234006270086 
0.502054807924906 -0.8133731416647987 -1.129582899085741 -0.9165348749202401 
0.48248101233361507 -1.0325453392868458 -1.0163482911976731 -0.9532574990426903 
0.11254765348648149 -0.9387425496628811 -0.9488563517515585 -0.8691791132690291 
0.17109266634618298 -0.9664094148707979 -0.9957682652043236 -0.9675852602074719 
0.2525557238707484 -1.202942690136577 -0.9170631174510397 -0.7634596017851603 
0.5317714183773139 -0.8985938488653054 -0.941389123274667 -0.6459300159026043 
-0.05817708951631861 -1.111302749395979 -1.0631967609887065 -1.0150248801309318 
0.546435504402723 -0.3980564773717719 -0.9771421288346241 -0.7391011551909465 
-0.07633116611298571 -0.8764561581951412 -1.095846932567149 -0.9395251535103193 
0.4837105098222304 -1.1763326181194107 -0.9596976300096797 -0.7175857511737117 
0.4416518274376612 -0.7441589699827551 -0.8914848801696744 -0.8121852927442823 
-0.05129883207542684 -0.9134454831481973 -0.9093684032018678 -0.4746832905465102 
0.22036126915447332 -0.8932936732875139 -0.9154566018997001 -0.5305545115887849 
0.5038676270577905 -1.067852756649704 -0.7675938099301383 -0.6909796032809612 
-0.20012838266146485 -0.5475645169097338 -1.0205035597009058 -0.07636842410601957 
0.34343434960420527 -0.7664149392734484 -0.9731998666929778 -0.456276774510071 
0.4156373871689833 -1.0171119345565234 -0.912275801695503 -0.49664098593821154 
0.1789673655936418 -0.6824746564102142 -0.8959547150324316 -0.9402162097144051 
-0.009390748556582756 -0.8264665727170282 -1.078602401786431 -1.1077835235693267 
0.44617765966498635 -0.9990367250181 -0.9434382005515336 -0.8375646450618373 
0.4540702552421039 -0.8514345153491234 -0.7751312943401915 -0.8548387352160121 
0.012721474362965429 -0.9655314691966084 -0.9783363027265563 -0.43364500051841803 
0.1963262101970652 -0.6794508575743311 -1.0094648427991668 -0.9642662636735425 
0.2891749318122718 -0.714322867987735 -0.7275566895223233 -0.6215481397289165 
0.37906304819019243 -0.9875201585535996 -0.9060402715173962 -0.1520509923294359 
0.1628120129551019 -1.0676204938258582 -0.9634623956202187 -0.7477940425429984 
0.3119219481478231 -0.7385441505447339 -0.966880496933298 -0.6863859583782018 
0.5238504936485558 -0.683831823423705 -0.9126487357585634 -0.9771175499277128 
0.06990422578905839 -1.1743396636950487 -1.0938224016858245 -0.9836744800631924 
0.38438270970896377 -0.7406582585056829 -1.0457141525242624 -0.7738272747491863 
0.4390934407079118 -0.7226290300519025 -1.0596743513694096 -0.8226984378660416 
0.0872385962108997 -1.0102741939442246 -0.9784911141276332 -0.9624354490629101 
0.5987664809071245 -0.9678061504933919 -0.8975543216646302 -0.306757500326277 
0.08293665364902468 -0.9478522343048618 -1.0200805940402582 -0.9254761752609909 
0.03284034131631685 -0.9849999145975649 -1.0151497470656528 -0.8035999499490396 
0.2672767913844324 -0.8351262690769012 -1.1165008143405222 -1.1198495720839325 
0.4883541501085858 -0.9764888053441871 -0.9424730420776752 -0.8862526862295785 
0.6507423344051884 -1.2001234220764998 -0.7266404455825073 -0.6567353668649976 
-0.07552613263878218 -0.7761353313222024 -0.9664779836172687 -0.8009449776907326 
0.1389873496918439 -0.845245406661732 -1.114310566932989 -0.8646823441000902 
0.3265418413739549 -0.8814727283729142 -1.0018656039103317 -0.7805595356590992 
0.2960160673252262 -1.1033673091837177 -1.0315221181191876 -0.6775289852461517 
-0.26302256641798843 -1.0547725761763698 -1.0222073094947655 -0.8867415423347912 
0.3232791178729063 -0.8804089556800996 -0.9776605745627939 -0.9893580714261494 
-0.0933869164056886 -1.1111616469709205 -1.018136416095565 -0.9774847980498351 
0.10842354726851151 -0.752158625005776 -0.9724614527006294 -0.6784078851176727 
0.22142842442645663 -0.6387454314406141 -0.8770027999060701 -0.6511572607895094 
0.47851900192451935 -1.0847299076342845 -1.0296555082387366 -0.6952255352898679 
0.38490278017254337 -0.758473917358099 -0.8598846958605834 -0.8294288593058133 
0.7490385644227034 -0.7516986786404135 -0.889140972600603 -0.6394527500000275 
0.4530439296590879 -0.8729133208294053 -0.9759561959619525 -0.5362306690245987 
-0.03482595645765677 -1.1278872410152974 -1.0292006608106328 -0.9396022290495638 
0.3566103337446595 -1.0357404694888812 -1.0186685488275478 -0.7108965963309974 
0.2930685158274993 -0.95133695850038 -1.0187006705773805 -0.9513374482060611 
0.03175075176261393 -1.0288805308358897 -1.0629892778001042 -1.0883746094634297 
0.1358765193804443 -0.5128382208703418 -0.9514350087263029 -0.9251410380059721 
0.3648523906530936 -0.16176249451493502 -1.033095664647392 -0.5348397894322905 
0.00591188053495543 -1.2739070164002992 -1.0617915907646933 -0.6737155426275807 
-0.026425708016883834 -0.927885111683224 -1.0145088536111238 -0.8432262565162173 
0.10026162121888678 -1.191206946608864 -0.9967486325604132 -0.6856043512712375 
0.0625017111551515 -0.6964149936091086 -1.0639477217102495 -0.8472942431881489 
0.4399861658022653 -1.0697880802149697 -0.9859585277276603 -0.6588599869261687 
-0.044409385012754196 -0.9492420954510217 -1.0070456008408202 -0.872802547349434 
0.11506901897720216 -1.0824848421767037 -1.0011658697652892 -0.7958550278738954 
0.08454407214104906 -0.7894521472232278 -1.0315686109733926 -1.019774320002248 
0.456138491294719 -0.9156475572044944 -0.9940692227532385 -0.778358106516147 
0.5311714360176275 -1.0802984934923732 -0.9071035260358066 -0.7302842852927821 
0.5020507054205926 -0.68582717071671 -1.006484137244223 -0.49243508230549693 
-0.0029785770193185603 -1.0717865211862017 -1.0187718424010634 -0.7267857679872387 
0.6681811846809074 -1.147920407275726 -0.8104397455832159 -0.03084609160516204 
0.21384919914962633 -0.8510320759369314 -0.9743714976974236 -1.0321130406988617 
0.27244794192967864 -0.7105232783405471 -1.1207053268995206 -0.62878725512555 
0.47988556410356836 -0.673463509099223 -0.8604891657860617 -0.9442228392153554 
0.210634397482139 -0.9790528030758837 -0.9471571080135253 -0.7761743018566436 
0.037093557202446246 -1.0385697757458228 -0.9321652701981733 -0.8995563430882808 
0.11271307632878856 -1.0749342341295776 -1.076298848498514 -1.0332491085833604 
0.23225980839251897 -1.0434068968008903 -0.8789671631580415 -0.799703544532703 
0.12144473840470488 -0.7107279219377923 -0.8423996081751903 -0.6272549627358815 
0.5658548337326185 -1.0403670198054287 -0.8448501807502583 -0.49504438392706385 
0.2045630156982818 -1.1729247886715413 -1.0130768628032225 -0.9126143582296855 
0.1815535065092459 -1.123000814984342 -1.0372881706950776 -0.7202677075576662 
0.4954255357887953 -0.8107004489284458 -0.8960455218736538 -0.8076913422926946 
0.1932059661157358 -0.944943512249412 -0.9540785185868776 -0.8845341872100653 
0.2734821977476362 -0.8052041324450961 -1.2774835634322197 -0.12714215574540827 
-0.06884522643406728 -0.8437951563604105 -0.904164541093795 -1.007011286934662 
0.06507567564936663 -1.03777426170041 -1.048188195726653 -0.8435960223807468 
0.5472296285500607 -0.83297412031281 -1.0696540326399724 -0.4359418791872599 
0.1679731174796751 -0.6063082350001114 -1.0252023779648427 -0.8523089990973162 
0.36046977469927943 -0.8334100117689174 -1.0392032905961277 -1.0173748548740078 
0.20200477031250108 -1.1237496263337232 -0.9274671386686187 -0.5709105276552837 
0.21310065770099973 -0.8617689835595534 -0.8374887454581418 -0.4834893091314029 
0.48961723641843063 -0.9486409529050089 -0.8314201488937005 -0.49931632463315406 
0.024853718846163896 -1.0469775816538258 -0.9148618336424121 -0.7328792291441794 
0.196671253390045 -0.7433000068104216 -1.0496316786981559 -0.7229576359633267 
0.3702654985601723 -0.46616844386140177 -1.037543481410705 -0.384678927655944 
0.1529999041899545 -1.2083170385871673 -0.8800032689414844 -0.8401411250337842 
0.3883284369250689 -0.6520973666182126 -0.9697943142809328 -0.904529813643997 
0.41224314652276695 -1.1460460238968515 -0.8726744429629892 -0.4396957266033955 
0.16140456705145992 -0.929694657189288 -0.991204161871352 -0.9618655565620707 
0.39162015474508916 -0.8446278796200574 -0.9724964520016532 -0.7713693151263296 
0.2645371434922763 -1.0886930187293076 -0.8983631516397216 -0.8049461520932724 
0.30351765288870675 -1.0914185501946003 -1.0036507107185746 -0.9735404009709961 
0.3845040033537877 -0.9204886834364818 -0.804317623196333 -0.344947420649971 
0.48295972195526987 -1.0336451538402023 -0.8663381049118359 -0.376528403943968 
0.18599457157702928 -0.9033301953209182 -1.0249085486413008 -0.8888369022859656 
0.5182818936151373 -0.7604762086411555 -1.007557104264388 -0.9378438158599895 
0.010564551509059753 -1.0425570641199642 -1.104516890184615 -1.0927628920703933 
-0.11386871200036654 -1.1021051401041515 -1.0119684570072371 -0.9283213504277812 
0.21213162332299734 -0.9915014712015779 -1.0059685413694224 -0.8271057771543309 
0.7108886154401501 -1.0465687549476947 -0.9533353416623812 -0.65909418038853 
-0.008186872358758644 -1.2160417805900476 -0.9584621256368095 -0.6226356696829518 
0.12152206972805304 -1.2639707076980642 -0.7212067193429222 -0.5650212902769406 
0.4916695576611114 -0.9030297168692577 -0.8824880482533342 -0.6298304061300996 
0.2598363979156696 -1.0023319988245172 -0.880148816073933 -0.5448623722699732 
0.5069265582519357 -0.8965583435523675 -0.959203782153154 -0.6799475091706373 
0.6872446723290101 -0.4750840445383626 -0.8702947926963026 -0.713152613130637 
-0.0038129687266499628 -0.8291338954925539 -0.9570938312701535 -0.6204368181393732 
0.5794759823728131 -0.7252394040712816 -0.8783583707223298 -0.8351575938356974 
0.06226222638093412 -0.919448749177847 -0.8861593986399283 -0.7210218350708141 
0.0788830870486487 -0.7248746878300438 -0.9278809133096421 -0.9457607161278824 
-0.06358072631347347 -1.2745272408494068 -0.9150973309805945 -0.6592765497451213 
0.0857969837665981 -0.9090267307362682 -0.9964011036292911 -0.8969590428059635 
0.2901880953278792 -0.9293904199936321 -0.9075879284613192 -0.5983481586690471 
0.4443174859046301 -1.065261217796175 -0.9295887018869944 -0.6802678574197412 
0.3481134420969679 -1.0111501828696847 -0.9567931240610374 -0.6592091332777869 
0.7485550984005708 -0.4229099449356559 -0.970798082605258 -0.18573706235874224 
0.06326125688982347 -1.0150656781310727 -1.1314706652420485 -1.1526765484696953 
0.09855374126479219 -1.0662310853516872 -0.8482080033533972 -0.10448085691869814 
0.3035316236368225 -0.9415296347304404 -0.9565203607006303 -1.0087225075944188 
0.10744877741299927 -0.924206282307755 -0.9189990660458068 -0.8889680036088856 
0.3166464838917292 -1.2858121566280865 -1.101273993577226 -0.7173433108736865 
0.5603965576064761 -1.0818602751454376 -0.816727640449876 0.10740035705769803 
0.5479259116137217 -0.919795814267923 -0.856458474459876 -0.6441001451578394 
0.5357377288371 -0.98431763512822 -0.9140002222642902 -0.4160267366602006 
0.32484555582751645 -1.043945610188694 -0.9365143972706849 -0.7398495463134221 
0.23044235808757663 -0.7727498530152399 -0.9123501213790514 -0.16440762901822942 
0.27143044780111647 -0.8685417763435253 -0.9051780760408458 -0.7998118227710738 
0.06687689096697642 -1.0545609883945308 -1.0519362603544864 -0.9582940718011655 
0.22806775484916147 -0.9109852032143633 -1.063044237978265 -0.9468348985135895 
0.44422133280065473 -0.732266681019094 -0.8708377263511097 -0.4290410963785915 
0.23292803778494592 -0.6902747545721377 -1.112165888449153 -0.921662619383845 
0.14368360913789202 -1.1866503721025756 -0.7833894357271811 -0.24655556392346975 
0.11864844661800689 -1.3300173467513623 -0.9821233233286286 -0.3687411442043713 
0.42597228778863255 -0.9626158560119462 -0.9915629222184992 -0.8775425809688601 
0.4215135704125195 -1.1279949759973873 -0.9444660392602985 -0.7161544747742736 
0.015657001229078885 -0.9953080408121975 -0.9777156080886401 -0.4773276372520394 
0.3074344877291452 -1.0270287892114427 -0.9792010760951311 -0.953296397824775 
0.41755669566676284 -0.996344023282345 -1.007870093241245 -0.6648900281979995 
0.2389640541892797 -1.21551796165821 -0.9388561186447779 -0.3968417817475626 
0.047730506910398734 -1.070467230731784 -1.1955952805269963 -1.1611431362140607 
0.2677713568864601 -0.9719520626733008 -1.0957261984604403 -1.8687759276846377E-4 
0.15032588254473048 -0.12242202854364553 -1.0708011647113709 -0.44706135066209446 
0.4395719508044967 -0.9348976590979783 -0.8477986924745899 -0.701709523145323 
0.24230877475394882 -0.9034078175089992 -0.984356997578202 -0.8114991853410705 
0.4461155762541292 -1.1738852001373523 -0.9352231918653683 -0.6514764317564663 
0.38314395682220154 -0.737393102009557 -1.008927402593221 -0.9190919478563581 
0.5116447913216922 -0.7977115297763449 -0.932270967032676 -0.80785676716611 
0.12701250788972349 -0.6283733075195111 -0.9630345702037634 -1.0076275144161997 
0.25391117554666826 -1.141601667665035 -1.0101852862018839 -0.7688004703439681 
0.0504788225838577 -1.1976852539419571 -0.8427698668845919 -0.39301248992930055 
0.8611068570113889 -0.8583294983449437 -0.8443355712526974 0.09325449597260814 
0.4936293709444824 -0.7440779373955492 -0.9729781537420361 -0.8449271199055199 
0.06668493745795613 -0.9835650310760721 -0.9818872796540916 -0.8936169878080129 
0.16434853227749316 -1.2204861678556946 -0.7099079485546412 -0.4230153390289664 
0.47209635771205805 -0.8826213628805731 -0.8920080609291465 -0.9474396595932647 
0.29978949736532956 -1.0378506030072576 -0.9479683747776818 -0.8587227516113833 
0.1681609653830891 -1.0814582172147482 -0.9966947414091736 -0.9672566905840655 
0.26729463487654087 -1.1591252573804305 -1.027208408219178 -0.43927503656344663 
0.5615736812904111 -0.8932820210982142 -1.057640424343226 -0.7635983585077522 
0.34951123547430335 -1.1094655217481768 -1.0917891929757426 -0.9541733675622324 
-0.059197948906891 -1.2832952327702651 -1.0361012878978164 -0.16412219789092028 
0.13917980720330966 -1.0005531033578468 -0.9809865264073848 -0.8798650797607006 
0.3660342001124294 -1.254622713513925 -1.0439629665970054 -0.2664675002511188 
0.031740610582932816 -1.1003152922587447 -1.0211972288105473 -0.020335964768561175 
0.6015972577040399 -0.44779398856129793 -1.0309052604889883 -0.8394037636161806 
0.042323795250513135 -1.2844047798338503 -0.9018420078368238 -0.6982392173479244 
0.6036522837123084 -0.6714300681357006 -1.1290592560925967 -0.030343322148219592 
0.35048771392329764 -0.968618306917849 -0.934379149237999 -0.8927053033160877 
0.140692154193686 -1.231317215275934 -1.016461480297217 -0.3649304146692078 
0.8818739719331761 -0.7187672801021814 -0.9471225894795822 0.008906594729657318 
0.2147966064501507 -0.7987393659786071 -1.1890393945087545 -0.393284097960088 
0.7522504217998294 -0.753736347490569 -0.7786688199157863 -0.30647569188855434 
0.19952218955444723 -0.64621954903466 -0.9714001414029244 -0.7850356736642847 
0.2914670855169469 -1.0067263579081474 -1.10582720512024 -0.5588027997700069 
0.009680266032356846 -0.974599722441847 -0.8186584241861256 -0.5730822073453553 
0.011244367129940274 -0.757577182550638 -0.9369848228910499 -0.7373331862956318 
0.06853287888921723 -1.0159575534434804 -0.9791344233307311 -1.0325001867880124 
0.4290940209489149 -1.0051989192857842 -1.0541188669848658 -0.9671903474918442 
0.26757776540249256 -0.8122085512409826 -1.003200885853297 -0.6307815334535334 
-0.017704350782848675 -1.0849221750773292 -1.0668095978056493 -0.8770119920997609 
0.0025879478954462074 -0.8832394100226343 -0.9802985747541108 -1.0174272014131842 
-0.042156850625607256 -1.3449632685854682 -1.0248009490840595 -0.8618298775782478 
0.49413627936537535 -0.7353807825845362 -0.8438830987320183 -0.6451959043729955 
0.009906064388492782 -0.9872325591743707 -1.0264964319831764 -0.7828311984221639 
0.19647284573451151 -0.9593724939270055 -1.1370392599392818 -1.1126008027777783 
0.4290135504431107 -0.9707425123900195 -1.0058016538284202 -0.2325295675212414 
0.3408472765044297 -0.8631832703447144 -1.0556175459454686 -0.792110902957616 
0.07347585212830804 -1.1202007947668886 -0.8558306109543676 -0.8100897616969891 
0.06993457573361371 -0.9330651696261346 -1.1685047328864202 -0.5543606185166619 
0.03074321614979442 -0.9137018027181814 -0.9392156063127928 -0.7641330440530314 
0.014993454899942268 -1.0629794497885143 -0.952807545472785 -0.5673918757737035 
0.396763572474006 -1.176653529037101 -0.9804189811219499 -0.3159724377093077 
0.396155699579705 -1.2400330296579758 -0.9754911927519643 -0.5273391877431762 
0.26215657857057784 -1.128487384236226 -1.0938833318547516 -1.0689860673608298 
0.25240144080751903 -1.0432854378284868 -0.9557214228530884 -0.8071883036414702 
0.17218033499476945 -0.8879735590160632 -1.142556064430567 -0.8123563179356048 
0.22200584170801488 -1.059173839017566 -1.0756752366204987 -0.7542068018473985 
0.14517987989937828 -0.6636268286876306 -1.0789516610448424 -0.6582482986953707 
0.41574264297650027 -0.8303195424529707 -0.8993744029118568 -0.8398724852507811 
0.3919365759817614 -0.8510394987768077 -1.1561023502181547 -0.910029176487951 
0.3683882280239761 -0.8225393305616951 -1.0539163697479734 -0.8539405389663178 
0.40397912019576676 -1.0911314240894177 -1.0565890339444597 -0.9595483216929366 
0.03897850960887552 -1.2498847551541254 -0.6904744920628195 -0.37998926335755173 
0.5400427830503265 -1.0220653395397155 -1.0145317185421967 -0.9507318912362556 
0.32691579496490364 -0.8936866747883212 -1.0875680799874126 -0.9099853851982076 
0.015253621333740934 -0.8297966345237717 -0.9312552359495421 -0.80114476724535 
0.5774186253691215 -0.32079764231220304 -0.8829634255746541 -0.7513782726383725 
0.38478907254902167 -1.0301258002112805 -1.0678867192241057 -0.5830437489425019 
0.29241712583242957 -0.7907913416197329 -0.7893292028265819 -0.5359471669504876 
0.12080867041173753 -0.7109182079943871 -1.0728922506941212 -0.9103603853704169 
0.016975851971356634 -0.8411549861711886 -0.9399816108562742 -0.6428932149247251 
0.3840757889466471 -0.9423982990684714 -0.9231798832124013 -0.8646389679719069 
0.1087085487396602 -1.0731927837930006 -0.8969775673851422 -0.7525976608322575 
0.19705499047927114 -1.2007204399983489 -0.9836198695611749 -0.5625528582854441 
0.27900029298411627 -1.3027968091118498 -0.8495188635913754 -0.19501301022627657 
0.1390360604854522 -0.937028356591487 -1.0407083708761682 -0.8398819622645105 
0.4259947269945004 -1.1946511792147803 -0.9232880581045093 -0.6014501110732872 
0.22238630894327782 -1.0430314393454783 -1.0436971188350022 -0.9465293079253162 
0.7616553515358756 -0.8379281888533578 -0.8273054311386971 -0.5097499955202586 
0.31185685026226706 -0.4292668297275664 -0.9025946414110328 -0.9185781966238726 
0.17075544735180273 -1.0847309965826568 -0.9771400710036247 -0.15493064963473233 
0.4497576474367991 -0.8688385513591452 -0.9582671254423987 -0.8665759448463285 
0.30854452644328717 -0.42004750173487576 -1.1257575998488096 -0.6460788415471724 
0.30991655157626824 -0.21293999489541757 -0.8998977261642088 -1.155598676825197 
0.1754496288073003 -0.9348828752732157 -1.053392070145573 -0.891776808287518 
0.42705738151292705 -1.204673802324822 -0.8566198432731329 0.11968756331503472 
0.3654370002249775 -0.7204490215202067 -1.0109860295747337 -0.7558838500694265 
0.18612091213391962 -1.123313482424624 -1.1524210148347378 -0.7470363212541 
0.2065948611491956 -0.9033108866012555 -0.996639346541868 -0.8742928995802406 
0.4462400291194961 -1.1907802342683433 -0.8147541248719107 -0.3570296967245615 
0.16439412258201766 -1.0281405497157656 -0.8440165034560179 -0.6670862971744871 
0.26589020278799774 -0.8558159737586724 -0.9553247494962431 -0.5650342302562361 
0.3980656813899993 -0.9907762802028324 -1.088815120883958 -0.8921759403643258 
0.5531187078802888 -0.7716636959618318 -0.989647016937895 -0.3830336451455732 
0.21399934145950472 -0.9842374260597728 -0.995988461479518 -0.9411302418056096 
0.32291095197247566 -1.0281260592090238 -0.903670076691991 -0.28905325204568516 
0.1286666723000183 -0.8449114281859201 -1.053187339236665 -0.8370615134241125 
0.09412609665104324 -0.8257416935887638 -0.9490069504820442 -0.944417319059934 
0.1289452852441972 -1.0487405252402986 -0.848016382261924 -0.8066349213308978 
0.2956050484519314 -1.0124107298978489 -0.9678448819167823 -0.8217930829467457 
0.060641911544763956 -0.9332121982921522 -1.0808207910739913 -0.6227948387820121 
0.37690058459232534 -0.9285540998729839 -1.0487601360230254 -0.8935911061258907 
0.34727159809949637 -1.2519328410853785 -0.6847867473622292 -0.5395996728694499 
0.3965668004297844 -1.0736431545749399 -0.8335906188667451 -0.7383159436038256 
0.5597418452141276 -1.160245370740671 -0.8795565197000883 -0.5923139124413765 
0.4134300726042136 -0.9536560045944396 -0.4557849667478215 0.24517318242106018 
0.014036534774545414 -1.0691501770244984 -1.1069477328227957 -0.9915537170684102 
-0.03633826923917694 -1.0867989364663875 -1.1069314196016307 -0.9951088554280572 
0.4069943365112501 -1.0490344262032385 -1.1293273362669067 -0.8832289883614611 
0.33210926403866053 -1.0737422659871725 -0.9013778090742531 0.19661707222871355 
0.4428986041481444 -1.207427140689726 -0.9032148764152713 -0.49637747229007817 
0.23538586486810478 -0.9402594581755905 -0.9649274867070999 -0.6795473247461702 
0.1604624105666275 -0.956675499643743 -0.9794924066630497 -0.9567644593077098 
0.45917932914688225 -0.7504181396294465 -1.0299272087054674 -0.7102493273640212 
0.36160759773989604 -0.8525401080738846 -1.037138992992267 -0.7475803727893822 
1.016745662780881 -0.691442263414582 -0.804657311419027 -0.5234556011980561 
0.3729842511181208 -1.0785301102144578 -0.8707082505718612 -0.7880006735246214 
0.3571553157446489 -1.0260928036447798 -0.7625969441256867 0.33854835784822307 
0.5549045970056881 -0.8682689552977126 -0.7531739178946946 -0.30702642178543643 
0.058565772303571025 -1.376044695145922 -0.7455688992379003 0.084643977012332 
-0.11141361138945631 -1.164025884426911 -0.9541666109197644 -0.7950093222426327 
0.3678035327675274 -1.2175226153892178 -0.8813687795914852 -0.551878171308802 
0.3555891835742233 -1.0751776124214336 -0.9505438839610787 -0.2463391269274911 
0.49479400532678136 -0.7288919599882112 -1.178119659136153 -0.48699135231676455 
0.5871396619222832 -0.5736076294197162 -0.9971038240701134 -0.7866970918295191 
0.6006329689992772 -1.149569271851651 -0.9459114819196106 -0.7363032169444146 
0.09118753452301653 -1.1425096174961225 -0.8792753327003597 -0.7822549313594956 
0.07316717462033334 -0.7257324313786511 -1.0640359627031968 -0.8500020834655092 
0.39425687806573684 -0.8778342539720111 -0.9471717173488098 -0.8766706853409356 
0.18587602908821152 -1.0927384836770042 -1.0244425664531964 -0.8125488946524335 
0.5226268538804713 -1.2087446717031078 -0.8835452392041742 -0.3582051309124573 
0.2262439563055622 -0.9690912563434922 -1.0136639006710884 -0.8765276766322702 
0.12428341451427546 -0.8876479474556104 -0.8699298989503945 -0.7363250534776627 
0.35868264109142317 -1.068293524138679 -0.8300847694662207 -0.6038591120272623 
0.5055855272795033 -0.9967407995734777 -0.8602601163587325 -0.8494185923371592 
0.5762853667689344 -0.9859339255250117 -0.796940497007892 -0.5634856857582171 
0.2707087419719418 -1.0648528579467231 -1.0103547392755003 -0.8345289456283906 
0.3399779206535346 -0.6790357896965858 -1.035875733341226 -0.8713720492817 
0.3102278866137695 -0.12102678056058666 -1.0792995990550158 -0.6578126672917928 
0.18996517707706825 -1.0607309039184667 -1.010720451660696 -1.054800848506112 
0.17548369386049578 -1.1591372167497895 -1.0991302178080529 0.2983963743903436 
0.4128545287259667 -1.1161781907238835 -0.9892605300039097 -0.26049227014453624 
0.15860304897619207 -1.1233217040660124 -1.0411816199615604 -0.15170839768137928 
0.055829437436398774 -1.1071152514587916 -1.1044108413687488 -0.5849123206665524 
-0.16901076409194768 -1.1272672799040344 -1.009279914380743 -0.9511228273879339 
0.504585495468408 -0.9623556868120233 -0.8982776436954001 -0.4058480421664957 
0.4042937011102245 -1.1235159608849907 -0.902476424164136 -0.6882771484876156 
0.2441053258393891 -0.6742190297500908 -0.9692754843317254 -0.8346950879530727 
-0.05201504842433399 -0.9007739233065948 -1.0847123915751145 -0.8710980228016107 
0.35060722811714407 -1.0488159615308112 -1.049476798871736 -0.9475691219536184 
0.49416517288081874 -1.0033525512159882 -1.0063106996868019 -0.9662748609843123 
-0.16757011139423528 -0.9105947938087684 -1.0133170088803838 -0.8563471408349348 
0.19062889705163233 -0.8351320145468154 -1.1183001865082949 -0.2465496541916042 
0.3857941679901334 -1.0544735008771065 -0.9932910502426574 -0.44981832212142664 
0.2316875410278048 -0.8476904156017541 -0.9643935875870282 -0.5726528689838658 
0.19159915634698874 -0.6346790254624923 -0.9567372870400874 -0.6282725453769239 
0.031027146961321375 -0.850542836913785 -1.1339419363498282 -0.30982348375952956 
0.43317001705302455 0.012596054056631853 -1.04438643221667 -1.0342803141853003 
0.2969695164062129 -0.9629921172709633 -0.8880135598423715 -0.3013505258187524 
0.21467038581374176 -0.6468849743485179 -0.8529398510252156 -0.6888902887655715 
0.03884817122343015 -1.0238360613516637 -0.8357123036983212 -0.3681445163541701 
0.16678267374653696 -1.1113811736843728 -0.9088624251163164 -0.48308446446892095 
0.1426317106185799 -0.9277503951739889 -0.9663753753967639 -0.8287288771624938 
0.11791076100205199 -0.6833705700213151 -0.9482111862389319 -0.8332857093630682 
0.26121476028537133 -0.914607886020704 -0.9715716487612696 -0.8452570042143651 
0.2272163375321241 -1.495073289486779 -0.8512722169237776 -0.6713706475737019 
0.760069049685082 -0.9452051878794954 -0.7687652973698675 -0.08117223476653135 
0.26364845868337217 -0.7579813732530017 -0.9310639345830162 -0.831913251987667 
0.2726367737437335 -1.2867159153511134 -1.028335122761507 -0.8564805963609732 
0.5220882901486561 -0.9122847419303578 -0.8342446558679857 -0.5747841193076921 
0.40068975749781377 -1.0180731819698254 -0.6660091193246681 -0.23856815257847283 
0.0731163916960976 -1.1302057508326004 -0.8573745703326091 -0.6958764304407447 
0.1711562736794365 -0.8620764719853063 -0.7986810524129908 -0.4707501091117831 
0.2420266063029948 -1.285306116394644 -0.9946827667556832 -0.8430786119407506 
0.09359094177914204 -0.9028884829363494 -0.9793429006522801 -0.6367168764496084 
0.18852637063055291 -1.1736172785017671 -0.9027292083389012 -0.44260313589845063 
0.26043943195797237 -0.9899524793595369 -0.8389333383963883 -0.7112914430402397 
0.5177570882282296 -0.8710692880878401 -0.7889725055557846 -0.7059133918376689 
0.4170294598717854 -0.8016369998347811 -0.9815601562131107 -1.0912377358323018 
0.1856341120283789 -0.7981122030052626 -1.0118710949889806 -0.33970149657772497 
0.1534421951629198 -1.0495455751068605 -0.9597949626065255 -0.3341421021481155 
0.09295819651427713 -1.0610140741454146 -1.052067645209587 -0.8399160714751557 
0.48404809459775733 -0.7877115066009467 -0.9194628250108088 -0.48790823777119097 
0.18024453212049535 -1.0842251089552348 -1.032737502121268 -0.8107772747739351 
0.42691850926748376 -0.8173299862183652 -0.8191684585048918 -0.7920308808358205 
0.20106339897909348 -0.9863332634674365 -0.973810477552116 -0.8554536567084204 
0.11812869652195156 -0.9721518287107282 -0.9993037009341643 -0.9754299881288058 
0.18036295384555662 -0.9650465551400299 -0.8593285450050427 -0.4752970896361553 
0.24886371775732616 -1.1940793406959667 -0.93258222894715 -0.9093502156892036 
0.4185991869823991 -1.0085725055813275 -0.8718167450923253 -0.5167483738618622 
-0.11626552792275124 -0.7377177247269207 -1.1854607899457619 -0.7416903438921741 
0.23101014968624503 -0.5922263552462788 -0.9125016071310798 -0.5491642879261525 
0.12520316278663893 -1.0916044633451747 -1.1264466463069216 -0.9577164513419002 
0.2106659802868136 -1.2066483380147774 -0.6949881546545121 -0.39502412984392843 
0.06810812136759561 -1.0353396981620784 -0.977755198736509 -0.7781305576321336 
0.27071162232945184 -1.0870601510459053 -1.0767509850454973 -0.9173341277312782 
-0.0027246663428172986 -1.025403253743626 -1.1730092979254272 -0.7387653825004041 
0.4364900790297544 -1.0796234734863508 -0.7556699232047008 -0.4608001496516388 
0.32710986732124997 -1.0764001991334482 -1.0981045510870215 -1.014241176603444 
0.10088042393387889 -1.0960800114508826 -1.0111335516224995 -0.5999343369090323 
-0.15393124225032428 -1.12275637417591 -1.0051993734008997 -0.8372344971500443 
0.19134825055892718 -0.853665769552769 -0.9990647779614501 -0.7661864335903729 
0.1395485262616664 -0.9512609444594797 -0.9633577195245246 -0.8435989050685718 
0.6677056846073002 -0.5903282009348357 -0.8883934527268843 -0.5728097823405948 
0.03754894867453191 -0.8898402985192201 -1.0722678729878996 -0.6543969980966965 
0.15797831030698709 -0.616608946630761 -0.8720808792304694 -0.9977034495765151 
0.3586482095979277 -1.1196571683128431 -0.8745681422802715 -0.43707593608641815 
-0.03499463479254649 -0.8481992918266728 -0.8957878385343183 -0.1295047365134523 
0.3537344742141325 -0.879017896722057 -1.0532199457425409 -0.9961303369888994 
0.010109720013070728 -1.0025401336764657 -0.9851126634939497 -0.9246270243289876 
0.3952917670745203 -1.0726481169403663 -1.019193476705928 -1.0306562943342945 
0.45718472018742545 -0.9927704061715794 -0.913364598146005 -0.8000722099963018 
0.420761706870217 -0.7467893636885432 -0.935539545152999 -0.9397637396420023 
0.5303658391014833 -0.6402009950850004 -1.0329193927538665 -0.8176531176263245 
0.4233546733974924 -0.9260278883284109 -0.8750232113514714 -0.6322735114978592 
0.3247768407302489 -0.215083239112842 -0.8424651622796134 -0.5717159965026305 
0.13609608456666566 -0.9759460889761871 -1.0840230333268168 -0.941272894647836 
0.5943443092093109 -0.8286265684165675 -0.7211554382023013 -0.6874384433302759 
0.08574023220029117 -0.9702100454566686 -1.0869141596387357 -0.9884883887114003 
0.2164550587409754 -1.1076452032942448 -0.973320305424471 -0.6679678806091757 
0.6268844054671614 -0.9441311965830342 -0.9684876258374453 -0.8302312536606864 
0.38484214583644377 -0.9643606667149233 -0.9684128169071768 -0.8519306406577503 
0.13742526573801056 -0.443651903902444 -1.0890420858062446 -0.5738030606693749 
0.20617139208763555 -1.0462933445180118 -0.880338746356697 -0.5966292649643675 
0.1720107420733632 -1.2229182753439511 -0.9483051694358741 -0.012172583825856937 
7.521049495334189E-4 -1.1514472360253694 -1.068653892114966 -1.0411155924723339 
0.3058154044730287 -1.0423991732102935 -0.932991941177438 -0.5237532848742277 
0.5124582489945686 -0.923365381714391 -0.8708119126613306 -0.5626841459009468 
0.2839964569509182 -1.1591728680201803 -1.087958300590656 -0.8977399233844446 
0.05822968889840904 -1.1305042882324274 -0.9995964763476382 -0.279434795957867 
-5.1541260882663535E-5 -0.6440417463611141 -1.0737824790081332 -1.0935904189176098 
0.7323877653532535 -0.6460152268071105 -0.8538788216300098 -0.6196713566522092 
0.41228775892942754 -1.0359638114893785 -0.9490943652328407 -0.6892131713315335 
0.4474447675585715 -0.9030087450501444 -0.9808957068636469 -0.8642007023904928 
0.20498249256357803 -0.7782417479574381 -0.7807240445151318 -0.3167728309617348 
0.026005696295874785 -0.8017974857768461 -0.9661376178092808 -0.5975225343310933 
0.14054156780793453 -1.021694876022012 -1.0608660997051023 -0.6497176524467284 
0.03274901571922069 -1.192898046107159 -1.039214955376724 -1.0039272003493116 
0.4050869136165684 -0.9293869595810326 -0.9030524082775169 -0.43721051177852516 
0.21497609533695888 -1.0020267257767441 -1.0551755945668226 -0.9427124332259315 
0.23383325599709032 -1.0853355540246339 -1.0992553433298875 -0.8761504374327582 
0.002931780045077162 -1.0897946250045214 -1.074558102747059 -0.9664591276203246 
-0.07991069519121924 -1.3332938430911039 -1.0087587782559744 -0.0482020626297656 
0.16235668738160988 -1.0599756963206577 -0.9161340356119801 -0.7308584474391331 
0.6200960516610232 -0.6921430920501317 -0.8749737001509063 -0.5310746066782202 
0.057399834612992195 -1.3381759699820854 -0.8471984300567812 -0.5994309011390964 
0.37620588818370493 -0.6457650170161561 -0.9514659859062595 -0.9199377507155255 
-0.09921354484610319 -0.6276790532915351 -0.9443673680574716 -0.36726709079481007 
0.305144774037797 -1.081811665246729 -0.8314380112978779 -0.6604093936651007 
0.6039318992888528 -0.9657034568130347 -1.0250412465707475 -0.6721306879195776 
0.21577522146349357 -1.0055530180558925 -0.9641187539327005 -0.7781311105919627 
0.0744720814575878 -1.0908953558891512 -0.9883489355745105 -0.7249665227218098 
0.2615157548882 -1.2874030720675549 -0.7748043508451946 -0.4790337801458026 
0.030816751989673707 -0.5556045800034742 -1.030874735510648 -1.080560093382364 
-0.01856868773162827 -0.9417229805233223 -1.0144428472274178 -0.70630998622002 
0.043883854614946635 -1.1136990934971456 -1.096679777365871 -0.9510210883550663 
0.7097462149038919 -0.7540785251129983 -0.9648208794808589 -0.9809842843954104 
0.4096576386172661 -0.7902749108111738 -0.8669929054631437 -0.7650451643288865 
0.27446750618406707 -0.9975819518231517 -0.804820478614787 -0.7091786248826838 
0.15449050312145438 -0.70488204890822 -0.9476427458660859 -0.7525910692559231 
0.4238903834177337 -0.8807197968486666 -0.9614464312815487 -0.7472573180555476 
0.27456505371027895 -1.0875745972823097 -1.0356597942192436 -0.6263573765851408 
0.31819944770619474 -1.0044882882647994 -0.9692173297944277 -0.8539810275643285 
0.11850358653809973 -1.1710164312576377 -0.8274702188455358 -0.317298700744783 
0.3646153338474535 -0.7217171889344146 -0.9453646215342109 -0.1460361255466527 
0.5318073552383554 -1.037057475222836 -0.8601674367457048 -0.5977000753353683 
-0.11309398347494368 -0.8935338551713665 -1.0002132641071262 -0.5354877569435893 
0.34789980061513115 -0.975716910386606 -0.9513419512877541 -0.13551434013761324 
-0.0552135594119532 -0.8572384273033832 -1.0360728569186584 -0.9340804142080474 
0.2448111412699023 -0.8963717515006209 -0.9443251391968605 -0.916504726605726 
0.24055364251180228 -1.1410020268022592 -0.8129230701356271 -0.46254422285067165 
-0.2345261586658861 -1.0940878732298491 -0.9688988448445813 -0.6944166718522143 
0.10287742308369005 -1.0645486457360513 -1.0721036212653547 -0.8452550200973246 
0.5594997347456538 -0.9548268600389574 -0.954234783718764 -0.9639930442061428 
0.4288473337695353 -0.9187347683419613 -0.9343508559106365 -0.2852758040924976 
0.33759613704017116 -0.8670272736072534 -0.9126993925806665 -0.9513808346859071 
0.3292720776850323 -1.0640033640866473 -1.0555783256911737 -0.5990577357030505 
0.16124527402874003 -0.9501830791749519 -0.9624215611520982 -0.5889786973488333 
0.036632093456261165 -1.0846425320268018 -0.9507356938724492 -0.6244139471067811 
0.5517265725176995 -1.2215137891540593 -0.8881650921254588 -0.6039412152821563 
0.014802100121148147 -0.957058857490782 -0.9279387330972825 -0.7784008892923429 
-0.03456404273699346 -1.0230000291978338 -0.9490977843448026 -0.6081623299913578 
0.3054008311835497 -0.9601480962631229 -0.9022824872346196 -0.3853183623203579 
0.6177354974544238 -0.8060462266953302 -0.7811767987294843 -0.7185465463596774 
0.25601489375988096 -1.0772541026722215 -0.877552607986993 -0.7959647498403635 
0.029806199550970847 -1.097331220132538 -1.0066855023534964 -0.830211088073772 
0.3167668407165926 -0.6759953542089013 -0.9945934154382281 -0.8015381445749049 
0.45943915304870536 -0.6455143657449729 -1.0308408614321625 -0.6900807817068949 
0.06633172352486755 -1.341679394031385 -0.6980090559121078 -0.20595509741311502 
0.537420165269721 -1.0670022576708984 -1.0049438149236702 -0.979887236554037 
0.42660008164248475 -1.004710806140137 -1.0054403434806096 -0.9595137787155262 
0.3834532875151995 -1.0658361176352524 -0.9919905349750654 -0.9247782577089344 
0.20806591275452946 -1.2482903249556003 -0.9735011931455243 -0.44649463276329504 
0.16468472674164394 -0.669674343684295 -0.9875489315504358 -0.7957102843319958 
0.4853858423203917 -0.775748075607617 -0.9190090498911935 -0.8116901007022095 
0.5233592717188575 -0.7524661212193638 -1.033289977676162 -1.0018656785428244 
0.3995225584339494 -0.9569640413180358 -0.9020891649694115 -0.641603647107647 
0.1833907825796774 -0.9002837622408013 -0.9243652459413305 -0.7227926791322808 
0.1795268967711955 -0.6627766250222326 -0.9957882166391622 -0.8485906667205099 
0.5910876010989514 -0.817674131470662 -0.8837543038093957 -0.8676049477317216 
0.22202187239567336 -0.8108391811777824 -1.1491926297568118 -0.9589948956327544 
0.5634266574057266 -1.0778390923760555 -0.9999975843403358 -0.5013700617497242 
0.4157811937873518 -0.8373727515483402 -0.994287650607894 -0.8403882886681255 
0.2864891865008906 -1.0162369860533362 -0.9943899858853565 -0.8991988494178065 
0.4883847619388689 -1.3387453135292757 -0.9367633478392656 0.036415394073540934 
0.4430506136511479 -0.6770766193673937 -1.0606338858144404 -1.019473512871577 
0.26593974151236277 -0.8690666918206359 -0.8307183287229395 -0.5713867216759575 
0.15590392067988412 -0.9399796211640818 -0.8909085514469288 -0.8062756667439132 
0.20613371040570272 -0.6605202518779915 -1.0304028267873226 -0.9413018979351149 
-0.04395905075992703 -0.6035062027820554 -1.0965446791129723 -1.008998990380956 
0.30636703817424077 -0.9558061663715804 -0.9691076969702167 -0.7401740692613392 
0.19144274265732475 -1.1042788507040406 -1.0182501078686208 -0.7897492961068591 
0.5411731812927046 -1.2896041521504753 -0.7684295486877984 -0.25869136689227 
0.463223640900583 -0.38167685577900134 -0.7086256032895253 -0.9164480825264433 
-0.018157675892074714 -1.1287624344111666 -1.0297702482670719 -1.0016432291408404 
0.3088792295183245 -1.1578465928875834 -0.799576715156987 -0.07371523160728473 
0.1368854803076519 -0.832761117009541 -1.030174776896296 -0.8718241834377423 
0.22920263824751952 -0.9553076262476192 -0.9111893816706234 -0.926891479699121 
0.11667357106729989 -1.0142805422451084 -1.015646052797774 -0.7690920742045378 
0.33381962652980485 -0.9024362642484336 -0.9715489028627604 -0.8995682688553344 
0.06059485648704645 -0.8673090487985728 -0.9679921226687097 -0.8022429904366206 
0.022197128056491596 -0.6872212948311579 -1.12068726469639 -1.0775600711935815 
0.07683135256842996 -0.6917318830803096 -0.9177706299811971 -0.7405105654091327 
0.29010921924848326 -1.0184095205497854 -1.0955234452418965 -0.7539856383344834 
0.2517436493777276 -1.1509232253279507 -1.0388617414739378 -0.6733471892519531 
0.21367958705822196 -0.7073977364879169 -0.9172512901622979 -0.8460266984991922 
0.5385249113802689 -1.1347636653727302 -0.9526979896323772 -0.8091659376336813 
0.05054169934785072 -1.1431677181982898 -1.0790501083224586 -0.63814244824107 
0.4356461824137152 -1.0694939841627475 -0.9997686912281877 -0.7877918642488109 
0.741787638961525 -0.5600020140344159 -0.9887460403349866 -0.4330426628541363 
0.5476829570430793 -1.1241929076560973 -0.9022078587973295 -0.5578299678313396 
0.13549280214819712 -0.8811972676784787 -1.1796239178528152 -0.5864875619450635 
0.6285969315311823 -0.7631305548593258 -0.8975478673528694 -0.76380431001224 
0.17477518094391362 -1.052615469911554 -1.050513822250164 -0.7668268753278928 
0.37728507832411073 -1.108658898900136 -0.9234323596671464 -0.7487035128135567 
0.0832319720763343 -1.1111643374637221 -0.9676858603606193 -0.788822245806725 
0.24219879776403308 -1.0309229006145388 -1.0186375962115999 -0.9105864938797571 
0.3274871143492683 -1.0392851459823393 -0.9593173722230965 -0.7186749403350464 
0.2094448392850577 -0.7627755703850084 -1.1219719903101355 -0.726549049842546 
-0.03369870032460554 -0.7680734171874599 -1.0202086251112183 -0.9580599738807981 
0.2410108143600497 -1.0252789024329405 -1.013961599679107 -0.8078179610441658 
0.41904130462604944 -0.8232238188030722 -0.8124839310052278 -0.7033421245943458 
0.43169575408675165 -0.6476996840232051 -0.8535088073900237 -0.4543514828434282 
0.33540078384657457 -1.129911989593663 -0.9984109242269182 -0.3757036161068678 
0.08810873679813848 -1.124912105754969 -0.9887757077369129 -0.5691276683199714 
0.1881670709476391 -0.952801867501787 -0.8315491129244613 -0.5796413157030416 
0.12011090527987424 -0.7917633229190764 -1.037508364498695 -1.141100848354448 
0.37096361620756396 -0.757927730502928 -1.0258546923835223 -0.4413048743613222 
0.1553552505794521 -1.0350750041081551 -0.9419556265779007 -0.8234064413264981 
0.23539103858290564 -1.016658779520491 -0.9417432359677631 -0.8226669392788201 
0.14800150334112477 -0.9939842037441352 -0.9925421471109492 -0.8053169057010796 
0.34945306440766183 -0.8661686448798948 -0.958072310070083 -0.6576172516268988 
0.3289236025300299 -0.9483474435820739 -0.8573210336994864 -0.6377726292040017 
0.199616630998322 -1.1899506404090916 -1.058771266583462 -0.386483876848947 
-0.10277529858135441 -1.0484439069413871 -1.077114571622885 -1.0548763362513018 
0.2551714300746055 -1.2654778104847293 -1.0241580402485846 -0.9184094013419977 
0.3380801706396599 -0.8896429527747167 -1.1581196480867861 -0.8538096240038685 
0.2724334265637132 -0.7777774127369128 -0.9955592485084568 -0.8392058540509783 
0.390776424190195 -1.2082269596823136 -0.9542812827738378 -0.6008475339331886 
0.09601606202739632 -1.2765693085028584 -0.8251042947771405 -0.41737562291040725 
0.1921717473275334 -0.6369266516165396 -0.9076133769222586 -0.716404878399764 
0.48544591105430795 -0.8591434008508722 -1.1520172723833322 -0.22066785474479714 
0.40038375940696214 -0.9448400873065341 -0.918732883036325 -0.7144061320883506 
0.31462901375606156 -1.2086755465585504 -0.9407981142578932 -0.7027926009536829 
-0.02141752342901095 -1.1080722049404996 -1.1256686751095168 -0.861663172291486 
0.512756044821558 -0.7352767116317269 -0.7609785346071183 -0.5373425812388464 
0.33626474660077416 -1.0222620576599784 -0.9574306068242509 -0.943885231156018 
0.3206590599470651 -1.012760746720516 -0.8353419945391236 -0.5520345902896909 
0.15256885024248143 -1.0748746908978548 -0.9698434279896442 -0.8942666281408602 
-0.06667212125269792 -1.0208816799536107 -1.0061535080017934 -0.874173847424975 
0.4863920414415507 -0.852803600436203 -0.9494365907924659 -0.7579115540253587 
0.6809832485934995 -0.4528687495135659 -0.9516872944422812 -0.19210716698919472 
-0.009265219300012442 -1.0050343026026964 -0.9429715360716404 -0.771166817756688 
0.6571821268295768 -0.9406184038935774 -0.9858386222661918 -0.4661942210838904 
0.053673488602568244 -1.0555607989501374 -0.9354088430578572 -0.8365515358033956 
0.41657566658095246 -0.2949796409102977 -0.9137106626545054 -0.8233123904136787 
0.22836173021670578 -0.7389212499754008 -0.8923116515861014 -0.1551366823998165 
0.5240083493475337 -1.025121118566217 -0.8831576634891167 -0.6525399385045071 
0.12203191007781469 -0.8279997437812322 -1.053999890113752 0.19712588459342728 
-0.1166754307765426 -1.0869755379888393 -1.0616293738533504 -1.0112880905480428 
0.5876170489685448 -1.0409699060674753 -0.9056987625621538 -0.6057871313726167 
0.09736872999561835 -1.1139885416708948 -0.8067642235979822 -0.5734742482354062 
-0.014601846969785219 -1.0185136998613546 -1.0357426819558113 -0.7977878139645252 
0.05783494294694686 -0.709185980294247 -1.0400149983463092 -0.99326229880053 
0.3943012255715984 -0.8915830192367733 -0.866569617061176 -0.17502218028376867 
0.4046388980129038 -1.0485107427029943 -0.7961734682610156 -0.675793202939958 
0.3020783848511093 -0.9571240499061981 -1.0558389171835874 -1.0124461623461094 
0.2440481027908971 -1.0506135217360897 -0.8129809658811122 -0.6577832698815491 
0.2583357471781887 -0.9732026120821993 -0.9772175689927551 -0.8841762554947381 
0.22482217991828757 -1.2233245727969686 -0.8812692416173412 -0.22198680606048343 
0.10206159618079995 -1.0045774208808498 -0.9407493904928607 -0.8310477072941144 
0.022430747874079424 -0.6765886443848074 -1.1469801763190792 -1.1440600484063606 
0.29896383754537736 -0.950690699914475 -0.9844212327210464 -1.0765201351316964 
0.1532859088080462 -0.8508189274349871 -0.8612150477205329 -0.6732725757160415 
0.28248589595625584 -0.8366414548337485 -0.9611885377795866 -0.9693555240966721 
0.3039215484929695 -1.0851757274127214 -0.7565355144865453 0.43999383729609604 
0.12034869050891875 -1.1206303309711743 -0.8641671461239602 -0.6445629940177868 
0.5471481473403582 -0.697903926468043 -0.835109309308853 -0.7837549300316474 
0.346816870269703 -1.020159230111497 -1.000293142203785 -0.6481372633234526 
0.11731166358640709 -0.9723700891790287 -0.9716294409197629 -0.8365018728359424 
-0.05537119713986355 -1.0565819426657288 -1.0520417295948636 -1.0181983754948847 
0.24046524581449694 -0.84606105828717 -1.0619617651945588 -0.856171773152892 
-0.2099346214889682 -0.9404532518187279 -0.9251550021556338 -0.4679891260683352 
-0.01151566456439487 -1.1499850730916374 -1.0458930120778034 0.056120518562899104 
0.6068382521690505 -0.8911523689800099 -0.9515138128349514 -0.5084055519548561 
0.6428813284179679 -1.0983516383062657 -0.9100272046812128 -0.308239083159181 
0.27726011440296244 -0.8775281246220412 -1.0082165249576311 -0.7904265568716038 
0.3462145148150583 -0.8361006945593419 -0.9131446180217611 -0.7776198854784647 
0.5713720414645689 -1.1275834634603983 -0.8005123264870802 -0.5983341450001463 
0.04771460700130129 -1.0316187203710092 -1.0813973030092041 -0.8652640438591975 
0.2527931573588923 -0.9401596587275561 -1.0561423095033802 -0.7489995512746414 
0.31446421182522255 -0.8425682509567053 -0.992058297411563 -0.8365069104856585 
0.07473891645549484 -0.8541822902270055 -0.9718248954659242 -0.9324381306018223 
0.34707089364499266 -1.0885679181521464 -0.9736847006890001 -0.7990912515098798 
0.49912322504439965 -0.49562104646464106 -0.9596257534711405 -0.7023042909407586 
0.48777373007937674 -1.0362778462741387 -0.880668072561511 -0.3907879307346986 
0.2669957769051725 -1.110048062450061 -0.9242213805722285 -0.6083700732094266 
-0.0017564197445052957 -1.0396017976591254 -0.9891048837571031 -0.7351348621340914 
0.34916526923985297 -0.8348056282868935 -0.9569538464511552 -0.8835742087562051 
0.5856396285177046 -0.11817162718545622 -1.2743245914711916 0.2669001363019725 
0.30243398021912565 -1.1082336669153536 -0.9066011315140499 -0.3029947647365552 
0.09755205039607974 -0.806105874940958 -1.0045631733075675 -0.5865386042003197 
0.20623230691557212 -1.0447386502778215 -1.0240372603744907 -0.6966720773012924 
0.2893334778383635 -0.9689612826024616 -1.0544795015635962 -0.7673731827472455 
0.41846621340225737 -0.022113524469649763 -1.253205649706719 0.3331195094849651 
0.13933180341304946 -1.0462604838323 -1.0370601034942328 -0.9756090038432992 
0.9547075381376208 -0.9708696335492848 -0.7810328245802411 -0.44301351263978944 
0.21370578817007815 -0.9815336028882631 -0.771157721690045 0.2521067948785641 
-0.08031039415713376 -0.7295227593559201 -0.8725333099373839 -0.44542619498427616 
0.15048220385319783 -1.1523119974843283 -1.0205839131700196 -0.9149423593810923 
0.28782448658804904 -1.2740803996670622 -0.8728548815569566 -0.6541518729507877 
-0.15084355199435304 -0.8383646640584194 -0.9535772499022465 -0.8214090648113579 
0.44610296560864965 -1.1523920547060467 -0.9104177002974262 -0.23854584108079258 
0.14882943377585772 -1.0704732781295427 -0.8018008283001086 -0.555313159659517 
0.5749200185548133 -1.0291520894893054 -0.879519399903598 -0.5173517259589913 
0.6768187768746767 -0.6852524182777825 -0.8986817040940698 -0.6308907918209739 
0.1889025497764657 -0.8642335329380474 -1.05056120898336 -0.8532194584588277 
0.5684967383164686 -1.2624317797995834 -0.8406563561582003 -0.47805233794424024 
0.19254667926377814 -1.0459595311984413 -0.9783252881313963 -0.685303201865043 
0.40023817931001465 -0.9668096374570243 -1.0304394125094583 -0.6426657968790269 
0.08866053273532742 -0.7177452150478397 -1.1072257141496142 -0.872647213734718 
0.5556459372937945 -0.8568820678701083 -0.9605508157422434 -0.7458671788956377 
-0.07979833606055005 -0.9486376415459092 -1.0373332110975204 -0.4963077890867417 
0.5956790543229779 -0.5387491590943903 -0.9159542436483672 -0.9250009244543939 
0.5817647761241483 -0.8934459810735774 -0.9720872077003283 -0.8735389964703206 
0.4792137842400561 -0.9450223573308557 -1.0215502200893318 -0.7612529681051916 
0.06374868021231553 -0.9913642859189851 -0.9735241446911399 -0.8170087982628382 
0.4758480596467418 -0.7481291973480275 -0.9695526294086705 -0.732470136424572 
0.2166715822752549 -1.0085589241667585 -0.9939299736587327 -0.8558046415103486 
0.32667336564326377 -0.8749905909781677 -1.107675010334929 -0.7052295269882048 
0.10941189241672418 -0.9337856873609273 -1.023738499584714 -0.7522011374499695 
0.25661965989996616 -0.861319351383635 -1.0288921974322012 -0.9897885092753401 
0.6509613850095903 -0.6817962098461938 -0.9666846944532396 -0.7732696591308018 
0.6001573380034942 -0.774202202219494 -0.9761843814074402 -0.9082076492303075 
-0.016258909547294274 -0.7409491804884635 -1.0302722019868666 -1.003451380835016 
0.039469285740516516 -1.207795144779473 -0.8746167056665078 -0.7091651994323985 
0.33077124403524766 -0.5522089238362773 -1.0826471873990298 -0.6215148162006215 
0.18916570930116602 -0.7859620907479936 -1.057172512368858 -0.7327082017560134 
0.15664595616686086 -0.5463632270624097 -0.9176683367418402 -0.2420312793535192 
0.0985208644031274 -1.1369065150443636 -1.0854443046499622 -0.8348944515155801 
0.19635751368299148 -0.7864756345630192 -1.056529009146333 -0.5979369158188701 
0.38743965556920573 -1.084088461584853 -1.0309481551089688 -0.5486098153324449 
0.38593009643648757 -0.9920735005456014 -1.0601345328940683 -0.8832044856595899 
0.09966085221182429 -1.0744092768074966 -1.0710542369438194 -0.37353724182470976 
0.4449847524461707 -1.0426940575817434 -0.9933497085707245 -0.7751773887431487 
0.47862436755912013 -0.8690051862627698 -0.9486016059500968 -0.8408438700543542 
0.3725553300681751 -1.0533925441614804 -0.7986236466015556 -0.5705420919334463 
0.03029704605916257 -0.9736904214063865 -1.0195838127837342 -0.9814373618193944 
0.292380937700147 -1.0645502843465273 -0.9819749382663295 -0.8964766827704701 
0.003499007562539625 -1.319189292096404 -1.099764990748352 -0.8920276372862661 
0.3469705603450615 -1.0365229690172444 -0.9854075093138227 -0.8405024339416274 
0.7608626676778099 -1.184565519905848 -0.8543137637193162 -0.5495542878068354 
0.30683058540688424 -1.0243756363788852 -1.0153261487820386 -0.8803783117558935 
0.420800963027084 -1.1473867435449903 -0.9131334997608981 -0.5923455322489862 
0.42023871923219347 -0.8494142328036834 -0.9440406930999203 -0.6189380600984526 
0.4280962542115675 -1.011196811840397 -1.1315247757451403 -0.9763521344176356 
0.2778662831992773 -0.9024443192008897 -0.9761347681332649 -0.5842464644186894 
0.6045221472777517 -1.0086327694357522 -0.9705251148293519 0.05006202904734837 
0.5934757877636492 -0.9059197625503658 -0.9692760165046259 -0.5597706594749796 
-0.005009300392338584 -0.9325564401063869 -1.0326845548701968 -0.9636956800076685 
0.127815014144951 -0.999898231084306 -0.9293097113390277 -0.691738597225839 
0.18515079973861967 -1.085482875549619 -0.9872006754202756 -1.0017427347742083 
0.15496806366682514 -0.8045898498055969 -1.1135417795207823 -0.9967044577859944 
0.1636471664017158 -1.0274188326941183 -1.0831249247494266 -0.7628435791022012 
0.24057211742188353 -1.0394677585047216 -1.0624391675865408 -0.9681554946561187 
-0.09306322135082612 -1.0212932734975764 -1.0269136539552408 -0.8253487660126199 
0.17321110182909794 -0.9217704321886011 -0.9278968914791431 -0.947882987339797 
-0.1252458846504355 -0.7946942411937647 -1.1160103342513517 -0.6505030706030006 
0.3294261622320349 -0.8475866408244915 -0.9277943041158823 -0.798337451412825 
-0.027681053088283617 -0.9096327155985884 -0.9351821387502248 -0.68141284769741 
0.4638079374941035 -0.6235984154995515 -0.9535888231632579 -1.0180481430998614 
0.4404723910711671 -0.9905884620882668 -1.0697964753165352 -0.5246219108600919 
0.31026426357202097 -0.7050921536776377 -0.9571715230318834 -0.18114240197259532 
0.16516673606633928 -0.9762564661880122 -1.0293140426552307 -0.8557187752517564 
0.8133907559370191 -0.8478710862247412 -0.8319945904380522 0.015983368065387717 
0.6473250926830793 -0.692665430787358 -0.8448991449186216 -0.2731582455830029 
0.13240464267379018 -1.0308262150952112 -0.9384347993751462 -0.6578780862890057 
0.3378334591375042 -0.7637508222900354 -0.9907728465234962 -0.8046627205583414 
0.3707606643994315 -0.8953524667251412 -0.850945653181665 -0.7016440091035037 
0.43731870371496945 -0.7514493430500075 -0.84684996706452 -0.8324501915463225 
0.34330915536589884 -1.2005353129008787 -0.8831209958186657 -0.6684322755446126 
0.6326580560139682 -0.9375390546928599 -1.0554293354205224 -0.7885400500006501 
0.17129593797514248 -0.988484666392059 -1.070725217979332 -0.8833815688212742 
0.3121092465406855 -1.0211715626534925 -0.8930886946966913 -0.23109289773439096 
0.49605108351584914 -0.8263432142945895 -0.900670546495873 -0.6242194853106428 
0.7123081520863208 0.25720424231256983 -0.9189926352881262 -0.8376140768493311 
0.2573079592145133 -1.009038066280399 -1.009068667590048 -0.8748193963884736 
0.22003013680080483 -1.0316174484452152 -0.9268767842908043 0.1188154814360948 
0.2341963004305742 -1.1711371735167484 -0.8740836316886937 -0.44196754245918346 
0.4258552585854194 -1.0476606558042207 -1.004203937445931 -0.32026095898509244 
0.205142910795919 -0.5756634824255769 -0.9562925430827636 -0.7671710007916547 
0.4516988087205519 -0.8997381785257129 -0.8784866324940903 -0.6675959072356633 
0.29997714929687735 -0.9356935267842883 -1.000025341468846 -0.9814013805508843 
0.07088989081560478 -1.1371042147545782 -0.6849308303327513 0.29894213677730164 
0.4226179272049137 -0.9266079279368252 -0.9658976109352833 -0.3854920219399497 
0.47680526006370544 -1.1875760666912856 -1.0224269686896394 -0.7704608411905346 
-0.08659145543756115 -0.9192202671202996 -0.9174424581146402 -0.6971108227402976 
0.338330644530381 -0.6433728541041055 -1.082537961624231 -0.9119536754795892 
0.24936180987442916 -1.2021783394107037 -0.7740156978065075 0.010739977172675197 
0.3574680687936454 -0.4279245211762091 -0.9087959324960181 -1.0716712385378375 
0.36020989559601485 -0.708389571344788 -0.9681561019472524 -0.7285431198292199 
0.11037532202616943 -0.7440594334223556 -0.8924156556583025 -0.7188535862524984 
-0.030143071508215387 -1.0959158179869066 -1.0082632380636167 -0.9039066647766324 
0.35619776137208586 -1.1271703011918541 -0.8455304036979497 -0.6798151969308821 
0.19124120775489525 -0.953676349848473 -1.165501939089234 -1.012345524800659 
0.2562132820383012 -0.9812840687888017 -0.9450523794467551 -0.6972543296572415 
0.37022040083342883 -1.238634231981983 -1.0014587873072949 -0.5073694666243812 
0.3081217366616983 -0.771585977139974 -0.8768866636903242 -0.6211815423174165 
0.4588584447523838 -0.970360199534401 -0.9392067757551888 -0.9881523701840174 
0.5328213778013419 -0.85359285725939 -1.062410501258985 -0.7112618323947116 
-0.10498614748154625 -1.0043099387570151 -1.0500300113788248 -0.8217421813057421 
0.12703043817353177 -0.47035208861767563 -1.0980168495899574 -0.6136855691359867 
0.4465481211052393 -0.8337984417373461 -0.9659593830828458 -0.6198743355582432 
0.24911329652256245 -0.8584327525789988 -1.112099288958056 -0.9607142705090453 
0.13061134527995177 -0.7792758538692095 -1.0128799692131205 -0.38605199543081153 
0.4214917676603753 -0.6376100968829199 -0.9349216278573074 -0.16169798534433955 
0.2460895326544773 -1.0781841815161342 -1.013076041188936 -0.9202068172668534 
0.34359700865206433 -1.0659430508796 -0.7418698463055801 -0.673809490246199 
0.36910189295321155 0.0973643185363905 -0.7884860024497912 -0.865756363282782 
0.16324798176594554 -0.9746607410122178 -1.0056755512557247 -0.7373782082191944 
0.6622162862281246 -0.7709392884985985 -0.9305261911029811 -0.4191415661000837 
0.14033344454102573 -0.9823633686168486 -1.0436864197194546 -0.8887120036512056 
-0.06421368374437149 -1.0386842215019214 -0.9322879051439308 -0.75841469873242 
0.3706473656238765 -1.0280893002929294 -0.961254420028199 -0.7155545806194329 
0.1069851087353337 -0.9852261720534072 -1.108897478611255 -0.9399768915149014 
0.05332155101850362 -1.0131937695643305 -1.0751552208297894 -0.8680152986245108 
0.8512276309001758 -0.5134651301941617 -0.8459508949478391 -0.7822914593081757 
0.00926214473602328 -0.9697427814063755 -1.0161663081703889 -0.900395626055773 
0.604583586900387 -0.6063373856943063 -0.9355226355688216 -0.6571038286080457 
0.27323342092175085 -0.9927387630337857 -0.9921388867984356 -0.7361962037906037 
0.3451343211417634 -1.1128200083511304 -1.0049746101114614 -0.9768001455302674 
0.652711816241862 -1.192665523318417 -0.9064919898356252 -0.5449108273881927 
0.02601409792919545 -0.7744504059948973 -0.8563107729455774 -0.4210886723860927 
0.4326998485712706 -0.6841788744104227 -0.9660567500399735 0.3763520934287293 
