0.4252473005364022 -0.6094609982291898 -0.9100412933326036 -0.727975976566203 -0.6446651403396654 1.0 
0.37709300744982516 -0.6501880053658841 -0.5482674803422888 0.01665292711141301 -1.064775659623185 1.0 
0.567183385948742 -0.11266186785037659 -0.3243602481103447 -0.43065118093410615 -1.4506066427294124 1.0 
0.4933478828126773 -0.23397247570969665 -0.662898729563572 -0.34227508810402696 -0.8485568240817168 1.0 
-0.3189193576803493 -0.3898420791940127 -0.6774319218417372 -0.776528578250172 -1.0974488238888291 1.0 
0.506026620737999 -0.6682920695799723 -0.5890156314607073 0.3255941521601281 -0.8405862077162175 1.0 
0.6120728465668129 -0.24537936272567842 -0.8023652922829356 -0.3479385898454616 -1.1354077300193572 1.0314397089282492 
0.5752833745319808 -0.9157501969675089 -0.8530665560007867 0.2922720588798021 -0.5976226253177891 1.019979051580353 
0.270198201865308 -0.49036223592598405 -0.7905159336560733 -0.8477879157906896 -0.9224301429420255 1.0 
0.5235341969025864 -0.6620956019977237 -0.46728419676687927 0.05075483707483069 -0.9702029015455902 1.074411011695685 
0.39003370908348733 -0.6122669204283343 -0.47250490615456003 0.1440652683307055 -1.253743553632773 1.0 
0.37804542458567075 -0.39100010426566495 -0.5663682604572701 -0.17232781300412853 -1.3682234263793962 1.0 
0.5700277606222502 -0.5555367493323311 -0.3823396552205167 -0.03609866746631529 -1.1712886538998075 1.0 
0.5327565635037448 -0.9731106823347012 -0.8000893054346817 -0.42212024381512336 -0.4521071639549189 1.108518810899725 
0.05102975230115625 -0.6275415498800597 -0.8279159841674948 -0.5791728342515636 -0.8851747602428117 1.0061331339540052 
0.4442159422024395 -0.45375281293956127 -0.7302880638048612 -0.62135989563663 -0.7336086462597691 1.06980420672165 
0.19847312641838857 -0.6678031125142954 -0.6079853029484522 0.02136878520702663 -0.9965021024502789 1.0 
0.17340703170456456 -0.20352559721127483 -0.8915940581253358 -0.8368033861818934 -0.9482989981133544 1.0 
0.3773622706141113 -0.4253747892583729 -0.7640190672513916 -0.27392125309905196 -0.941021404416495 1.0 
0.4810626408822638 -0.690965811344739 -0.7043506076408851 -0.5078150442378181 -0.775655786310364 1.0 
0.317791133610586 -0.787494936925423 -0.8543785775479316 -0.6448374498525635 -0.7647379851637074 1.0 
0.3412110915513192 -0.6034963076190049 -0.703207818629199 -0.31964678578122174 -1.065027325978898 1.0452994363375598 
0.5152547003562316 -0.8061143392485806 -0.682985399186059 -0.24384307560158974 -0.8528077620264918 1.3310404966650367 
0.3150339608190121 -0.902713100393033 -0.7793078977441036 -0.49415689487577313 -0.7578863818281949 1.0 
0.4234996663687302 -0.9280310031835316 -0.7830111179873801 -0.533432826521319 -0.8001535613365134 1.0 
0.5932109508515735 -0.30289584470312636 -0.9051904647643901 -0.5508827294941263 -0.2127531154392538 1.3376625199455232 
0.7310498796810037 -0.2729883930372168 -0.9233219478169084 -0.5122638289562818 -0.670681395777143 1.112753255710925 
0.6918927403642637 -0.4007048079758215 -0.5742407910180597 -0.3856214544838592 -0.6053977999706871 1.2945093776052934 
0.11945565068917124 -0.5249548795456797 -0.8401707255252094 -0.6748798055021051 -0.9324809609398844 1.0 
0.2497648416863276 -0.5581927071070821 -0.5067920769725434 -0.45371238009418013 -1.3612288642894115 1.0 
0.39500537642085753 -0.5701259684047778 -0.649259967008891 0.2826484433342408 -1.1187675313819474 1.0 
0.5001315530042293 -0.5086622008998125 -0.5980069428961702 -0.4572777457564537 -1.065435101485243 1.0 
0.6694879244078475 -0.646431604875286 -0.8963074924730049 -0.4894365728665943 -0.7469143939081379 1.0 
0.22552842672967194 -0.6136077956820922 -0.8443304908813856 -0.4875716641855711 -0.16516005225778338 1.4363972338434727 
0.3793205158983255 -0.8254852717388004 -0.7878783010670113 -0.7269919765340741 -0.8141178474529833 1.0 
0.6467679078753861 -0.9187210679681833 -0.6047713666506598 0.12918923552577072 -0.7500131805614956 1.0948451646888668 
0.20615032800758362 -0.8684724255603151 -0.6618535761406071 -0.3597090610949262 -1.0001944213389855 1.0 
0.262868120186559 -0.4626394555832216 -0.6694196177191181 -0.39242581311687225 -0.84188425875617 1.0 
0.0895263526716847 -0.9183951558170215 -0.8382062601709742 -0.3526931551420992 -0.892612734117535 1.0 
0.20818905761678327 -0.7656134875767742 -0.7960071793722177 -0.08014262993346252 -0.3960528295815515 1.3281204625022223 
0.03173847893316577 -0.5878006640661191 -0.8114470991233672 -0.6743586398914612 -1.0317225617408257 1.0 
0.607349789390796 -0.8186183901979927 -0.7671904477555028 0.38813426487368585 -0.7613296524305948 1.0 
0.26353054405891274 -0.4565428281450584 -0.632321839187454 -0.5343451957001144 -1.0388396748580195 1.0803302228607374 
0.04749241792725564 -0.94994336505888 -0.7856532270226659 -0.02259508618495699 -0.4577088116371705 1.0874268320680573 
0.3164100161244462 -0.5625739345716126 -0.8863618657584689 -0.6622221280927764 -0.4241174849970276 1.052607689088998 
0.5070972684210814 -0.6521177813269483 -1.067676425821969 -0.6948971295711799 -0.06309026962535892 1.0 
0.6138257097689739 -0.7080288599546544 -0.6982581971774589 -0.08269252766210747 -0.5970790861052025 1.0 
0.2004603682785983 -0.697198487711544 -0.7308581134149621 -0.6585492136012212 -0.9433802703774209 1.1241911721733904 
0.5351433083169688 -0.8421784161225101 -0.6207908633215997 -0.049542377767071114 -1.1832589751021918 1.0 
0.3072935617321497 -0.7186025487477607 -0.5561959942669072 -0.4398636522494055 -1.110385291312153 1.0963010569507317 
0.2802924423761762 -0.8772850603055188 -0.6113128086329471 -0.5697375968970241 -0.995867357148013 1.0 
0.6505144180203543 -0.9972221939624174 -0.906239939628358 -0.09054702900865484 -0.4864495669014675 1.0 
0.28016499496929087 -0.5731198718674433 -0.7878102994068015 -0.5531632278689315 -1.0879911154127846 1.0 
0.5584982943755457 -0.48614468855073795 -0.5242218050900355 0.5754486712573998 -1.0332105828987117 1.0 
0.3096594688903466 -0.5096703924822658 -0.5745390038037261 -0.4356407803257748 -0.9389973645260562 1.063380522223564 
0.48746793704372526 -1.1427551980654027 -0.859813554898094 -0.03390096784955034 -0.44710991916057047 1.0 
0.5855188332758655 -0.607152357483729 -0.7641671155981952 -0.5303618579837678 -0.8076090256959565 1.0 
0.29435704873803964 -0.9037864088641646 -0.6788611861661329 -0.5473689157061182 -0.5399769223220906 1.2617012568086245 
0.6224081163418326 -0.8051847480567114 -0.7778976823767664 -0.47278036548399716 -0.6969070791623848 1.0 
0.42462461781991906 -0.847253053086507 -0.885678608685916 -0.748110308438842 -0.6374334035071075 1.0 
0.23086401843081789 -0.6294628688897163 -0.763270405645523 -0.285315129235373 -0.9197039123597024 1.0 
0.015502172122197254 -0.9115001222810618 -0.8084854708499754 -0.3442999443807229 -0.7816283690442025 1.0 
0.2097191368105819 -0.7282201543945824 -0.8121171629564475 -0.7192389879499316 -0.6744953492359209 1.0 
0.12235409273744559 -0.7269729768008469 -0.7102451125370256 -0.6137619560319963 -0.9516107601453456 1.0 
0.3517852379651045 -0.6648531090405102 -0.4900074536159856 -0.10680430626325826 -1.210805278809079 1.0 
0.3849917203950267 -0.7786377360604558 -0.7242594464229475 -0.1933543971171674 -0.9588350202488551 1.0 
0.14687904564910512 -0.6703899272769308 -0.750423589054325 -0.9580915806407524 -1.0165653292517245 1.0 
0.26858319029528555 -0.4992208066939183 -0.8619833508883105 -0.3902154773058919 -0.48335958045310545 1.3354213261511638 
0.7605696745679574 -0.3645114863022742 -0.9579032406635379 0.05816217234928522 -0.8645475288304998 1.0973230705633297 
0.5201936054035401 -0.5954351733735597 -0.5927921938382822 -0.3520374587142299 -0.9220768837892499 1.0 
0.4425995799268621 -0.5779209132468942 -0.6926989972218986 -0.6358196077006306 -0.9402009364350442 1.0498813131259106 
0.30203023729172984 -0.5878829723145409 -0.6492802073486276 -0.6813594939586181 -1.1223483850899494 1.0 
0.2890705348355615 -0.8712856120068471 -0.8150943420885683 -0.5554252816402598 -0.8072278327839943 1.0 
0.4886118947927172 -0.5352238462785168 -0.7056137797769277 -0.42914520986026783 -1.1819430739152446 1.0 
0.3152875330028782 -0.8989896491483347 -0.6843475935764202 -0.2613925418488733 -0.8668227464506231 1.0 
-0.058533688396890826 -0.7066342248203225 -0.4860586476904753 -0.03366343777056446 -0.8594058732433012 1.0 
0.570956944931812 -0.2937424006235324 -0.4451228607069296 -0.3993907852691302 -1.3931516172594225 1.0 
0.48465173461671224 -0.31896772561815734 -0.8958328844868542 -0.2894556365731594 -0.8393897232676605 1.0 
0.24747159356661924 -1.0009633972743348 -0.8367684745815916 0.01159331490731011 -0.8888396267987131 1.0 
0.4392061360258403 -0.6294059131487328 -0.4942324707832 0.09758731274059773 -1.071860400847522 1.0 
0.5378154933613968 -0.6570087480464427 -0.530676716261899 -0.30802296482076613 -1.0411098173506768 1.0 
0.5528387202835456 -0.5655919339817279 -0.6778034206712132 -0.5118825673345366 -0.8843185779193042 1.0 
0.6564146111176055 -0.8902184457060563 -0.7853064071658216 -0.19768672120375713 -0.31342719645816597 0.8375594860662173 
0.39039962189411953 -0.4791485763545246 -0.8330514952981274 -0.3222861669107543 -0.6417533096938821 1.0 
-0.004753000764678345 -0.8693166989376433 -0.8868056447026985 -0.438673467074267 -0.8830342977337712 1.0 
0.1941249644892534 -1.151960853390332 -0.6777433706728934 -0.3414531496432919 -0.8241241474905932 1.0 
0.2863468676653331 -0.7559958147942096 -0.4119000593150069 0.09268972359334833 -1.2512100545306288 1.0 
0.3265243614880462 -0.5259093284883005 -0.4562739016239593 0.05087333595359702 -1.355071101985453 1.0 
0.17213817866436235 -0.8114187068881866 -0.39223936808908905 -0.3243841990495979 -1.255121417918169 1.0 
0.5112077125279743 -0.7955424201056361 -0.7593426436383202 -0.3925525978322547 -0.6083640908767375 1.229938637271996 
0.4127377733624262 -0.4276046474347299 -0.461406961377046 0.13931595991790838 -1.3571924019597066 1.0 
0.29434566959000946 -0.6464664479123124 -0.7196634492595007 -0.45553594907615486 -0.6798315964918122 1.3566534758183402 
0.21265532912515456 -1.0107992219148654 -0.6955407846142164 -0.1172856369701108 -0.7026280788146426 1.0 
0.30793021751183386 -0.9287481055081273 -0.714382932521395 -0.6345792986980597 -0.7109722820573393 1.0 
0.5259522069136987 -0.6251910751786119 -0.9254677426877944 -0.3120791925924816 -0.511884207438157 1.1801933380894178 
0.6625819423753654 -0.7128717578606234 -0.7604807427235089 -0.5952951445186703 -0.45185610994018893 1.077533542136978 
0.3014887950370526 -0.8181715072959697 -0.8353224836417542 -0.20162201276583683 -0.8767342593880925 1.117906781693551 
0.34749588118123137 -0.6978369535774648 -0.8436087824355887 -0.6601977501674718 -0.9103461339270272 1.0 
0.4110076340204319 -0.36675933617701956 -0.7959502447901952 -0.6238497828878983 -0.8975498265632451 1.0655413915736167 
0.40636213582536057 -0.7677771345515783 -0.7068980889106019 -0.6867293731007182 -0.904439312771104 1.0 
0.15670527773236656 -0.8018865593588059 -0.592540694710084 -0.47228268707100285 -1.000981622876634 1.0 
0.23586725486601473 -0.8155197302310198 -0.7891682870714749 -0.4869641416872522 -0.691575454675609 1.0 
0.0863118097014067 -0.8559337637284359 -0.5536829673473797 -0.323158067002953 -1.2192489372209376 1.0 
0.48559611770729144 -0.8222160419739198 -0.9658432989006884 -0.06055781458954243 -0.10198504963550556 1.1956557690537994 
0.4118961796530836 -0.4970633325896609 -0.7409576712413446 -0.5839834561938371 -1.1015268084403698 1.0 
0.31736647590628453 -0.6337967455151585 -0.5565373975044694 0.030441831566169437 -1.1716471842119576 1.0 
0.7612456054638179 -0.4274639836076937 -0.6459396855912909 -0.633836132739547 -0.9651925660199304 1.0 
0.6430436301429867 0.08940668154520262 -1.3081571668714134 0.3410228969169546 -0.39174009367253176 1.0040370840146513 
0.1328219033115051 -0.805742594044553 -0.6468385129102794 -0.3536482061946701 -0.8366846215255563 1.0404014275146312 
0.5128848349929457 -0.7910486000695123 -0.6072407791621788 -0.4879455149915426 -0.7553969521925727 1.0 
0.18298056348895889 -0.896294296970479 -0.7244831651631924 -0.1527934354165188 -0.791292960332924 1.0 
0.5218797267372322 -0.18696321482226322 -0.7046273263647371 0.2548727475309252 -1.1745643179168164 1.0 
0.3589146631563475 -0.48931884260776776 -0.5825839147079758 -0.1669476383666238 -1.2065757570398175 1.0 
0.4806248333962509 -0.756135065686768 -0.6846914150137086 -0.39808639427680703 -0.7101299679704611 1.2955562666687397 
0.6474847502435973 -0.7436818853928425 -0.737642379105222 -0.5060887422196387 -0.7710412928254441 1.0 
0.37014950029038507 -0.4194129160378416 -0.6332337792404025 -0.34963985008076015 -1.3158922485619802 1.0 
0.46174600683174727 -0.8201504842547901 -0.7150797450466034 -0.5867237883719721 -0.5505418725738866 1.156354830407879 
0.20205648082449748 -0.8716937104194045 -0.7627174028246614 -0.6414611413930902 -0.7845668461686572 1.0 
0.59916477497809 -0.7042611668153135 -1.036898113246413 -0.45869363646202266 -0.1854999332377608 1.3484628875731812 
1.0440575131673036 -0.9513309554999524 -0.7431109970494735 0.06272361363348193 -0.312378729042563 1.0 
0.5708149317100278 -0.6951328004011718 -0.6887968211748481 -0.11011339084866621 -0.8674549649666439 1.0 
0.5086025786983343 -0.9367378204466986 -0.8345017532839311 -0.23694340021272725 -0.7299999752894942 0.9769334603352161 
0.5443653746711801 -0.46160555101616596 -0.6073334067692409 -0.07246410928649721 -0.8455369673932764 1.0 
0.26149574783767393 -0.5628348568619407 -0.6833999139499892 -0.5522069902883071 -1.072268475700303 1.1395444523474831 
0.680521016636081 -0.7549375344669351 -0.79513090593793 -0.6311282050178568 -0.9678159400175066 1.0 
0.2551951760024589 -0.6107311621418968 -0.703593690395338 0.019630424806104305 -0.9561873911198441 1.0 
0.4955300740901699 0.03698665996327541 -0.3368987606105354 -0.016962239580475505 -1.608881034063298 1.0 
0.21156350276119942 -0.7518975760362351 -0.6312753995090605 -0.5840577032327798 -1.2122898228975492 1.0 
-0.13816323773850062 -0.8023370193611066 -0.7072370470834354 0.2535724151598854 -0.9840792726775363 1.0 
0.16834079350381656 -0.7016297893570631 -0.6706019600878564 -0.6447016727660496 -0.9389350003393362 1.0 
0.36701294823557495 -0.6082808858086157 -0.5949274237951825 -0.304300199823198 -1.2791880330767802 1.0 
0.5170309935540549 -0.46387536007961705 -0.6369302303230715 -0.7147714746693536 -1.186824743742477 1.0 
0.5549850525251497 -0.5543870487587118 -0.32163792349738385 -0.272777065722452 -1.359600636136383 1.0 
0.2902106823541429 -1.143059944835132 -0.6952032949160624 -0.3870915527137041 -0.7954899057194795 1.0 
0.7239898879249199 -0.6804513091311974 -0.6958183328972163 4.667185519807975E-4 -0.9287318007243218 1.0 
0.0799038543343052 -0.6691950163402739 -0.5782887261789524 -0.5032801495963791 -1.0444618626204798 1.0 
0.3445972654726031 -0.6086752178322871 -0.6825786787077782 -0.33069024952216386 -1.1524907135679474 1.0 
-0.07040551292951436 -0.5674312463297412 -0.7580209569161763 -0.7340519304958064 -0.9487934705701362 1.0 
0.6781807497054274 -0.39723045606172874 -0.5213538306935718 -0.2735237059044525 -1.4790585958614666 1.0 
0.7489742229221226 -0.4349163080393768 -0.4811819884860474 -0.4451752490111384 -1.085981484610972 1.0 
0.10378971974887964 -0.5756699203091243 -0.7639695818804011 -0.1947403394067527 -0.8329884195705756 1.0 
0.1336313482963134 -0.5613013260617089 -0.712079996866699 -0.3630626674943417 -1.024998475607037 1.165628438698234 
0.2922893019683496 -0.5259280619031732 -0.7670193308193456 -0.5890121148830822 -0.7217759139202922 1.0 
0.4542475520885518 -0.6191279603946038 -0.567903810602444 -0.07459791356867795 -1.0552142369007933 1.1259534067681531 
0.3674006497493147 -0.7098582843736143 -0.7854313631893262 -0.7761721048737253 -0.7433734186501573 1.0 
0.43236507417224457 -0.3408349999333943 -0.5718242695244198 -0.5478194901732214 -1.104096093384915 1.0 
0.5918548023299607 -0.7022084765912193 -0.556662861092979 0.05264241863537473 -1.1154156161381965 1.0 
0.06363105754997654 -0.4800773539302622 -0.7662477276312111 -0.9680195900259551 -1.1072951326625713 1.0 
0.12500364452590992 -0.7218708653634575 -0.6932556930639232 -0.4394613991355499 -0.8828705570125717 1.0 
0.4885264620807775 -0.5770720690712884 -0.4599393106803594 -0.21756349530998326 -1.0120790387518481 1.0 
-0.04762960935666376 -0.82022497707222 -0.8564500401700832 -0.8082319751064589 -0.9520169625342665 1.0 
1.009778396005128 0.19434365895113387 -0.6773532354452996 0.17062829288779152 -0.9389539249371006 1.0 
0.5304137891452295 -0.46782547463809954 -0.6477805115170523 -0.34830605970554973 -0.7545943350064372 1.0 
0.23548516290120508 -1.07702625786128 -1.0418033976240626 -0.4272557012292219 -0.7669371411849861 1.0 
0.2167159774479003 -0.4340040740801211 -0.7125417488546674 -0.5449883727790819 -1.073141033929848 1.0 
-0.05944196773328403 -0.8510952795954748 -0.6004037624965074 -0.483974865973894 -0.998684107079956 1.0 
0.3421083718459103 -0.7706033329961081 -0.7602541061986124 -0.5869935769527396 -0.9096198871662796 1.0 
-0.03472232764396331 -0.9219248832342275 -0.6940350368586136 -0.4875523279588132 -0.976010128693865 1.0 
0.24154397490220156 -0.9658999447193459 -0.8806249828420462 -0.6285319205254118 -0.7184824543385303 1.0 
0.4680768332359486 -0.3789628852259107 -0.7132011796921005 -0.18176862806835922 -0.5263846293941105 1.17704851057642 
0.4904167042534263 -0.9752563570687792 -0.816017132489354 -0.6911366200854251 -0.7214610094796481 1.0 
0.4264631474047081 -0.5281013683244271 -1.0862991787225016 0.45506976084753303 -0.7051685563047516 1.144740154037356 
0.3063451926327855 -0.9152869148633171 -0.8849913720443937 -0.6800931826396514 -0.7249368607460357 1.0 
0.4826890536184954 -0.36108364001536974 -0.8525052996120672 -0.22178077263800688 -0.5825141214587429 1.0078374910990537 
-0.09725132430124639 -0.8721673757567993 -0.6098672745256544 -0.477489249382157 -0.9815092028747302 1.0 
0.5185346474333192 -0.9523370440914282 -0.6651794475275203 0.04674462078393766 -0.6364724565444423 1.0 
0.5479924449700466 -0.8297002472343284 -0.7577270395639185 -0.5938045342325209 -0.8987120244333516 1.1148356949420037 
0.38278861139592424 -0.7453074039899755 -0.7559967927082177 -0.03557409646891447 -0.8350554110512083 1.0 
0.3694606327784153 -0.581932967823458 -0.6474303033977507 -0.6816899255464575 -0.8345904378286272 1.226929986714242 
0.2097394805167401 -0.8220477579813558 -0.6346111693117334 -0.6256411559135335 -0.9321792031067161 1.0 
0.3169175006884478 -0.7416200361314443 -0.7411072645761895 -0.6330761560900071 -0.8449786019705205 1.0 
0.3344865898242023 -0.41408912192293323 -0.5629950830421364 -0.6186559737117643 -1.1393284010036075 1.0 
0.04493685796550578 -0.7664687077694573 -0.8124536810067952 -0.7682210459936056 -0.6598236479959386 1.0 
0.32682099067722503 -0.21242107781386493 -0.49615588734790905 -0.2294896018649712 -1.139513036300706 1.0 
0.04550998314569676 -0.6095998916133202 -0.5090788952131496 -0.2726090059750126 -1.0915035970066405 1.0 
0.18982906423886056 -0.5520121510799493 -0.6183920070977577 -0.4035909646831983 -1.2812715382601656 1.0 
0.624113089787587 -0.5159974258185492 -0.5585538384151294 -0.5212199285020152 -1.2420600159117512 1.1106172554271059 
0.5461324853097509 -0.011612600885562147 -1.3173064307261717 0.52452459411073 -0.35388651199762694 1.0 
0.7735071650028146 -0.45949704118795 -0.7669315301202424 -0.6054787041798033 -0.9788232719039579 1.0 
0.624160390765713 -0.3423154079477483 -0.7974544870884727 0.43176104227789425 -1.220369943380567 1.0 
0.3950193736980213 -0.3463440965162031 -0.5277733212349094 -0.4249676410376302 -1.2638778458784197 1.0 
0.408134422735313 -0.6973886354989534 -0.7144122877189246 -0.5376923889697878 -1.0333021438498498 1.0 
0.060908388230253414 -0.5433758112733061 -0.5088971722560718 0.1284576533987839 -1.480965157577684 1.0 
0.47001302530747774 -0.4378490509925861 -0.6532969411695027 -0.6971390225105581 -1.1928438894100264 1.0 
0.3120066594704195 -0.7172070364322188 -0.7426064397925333 -0.7001579831551633 -1.00032476028547 1.0 
0.5309423717940007 -0.7576978998009714 -0.1472559223061941 0.26260652703830356 -1.118839261218646 1.0 
0.12174659878676278 -0.35612670827200277 -0.5416869820332991 -0.27505211231575083 -1.0592776679908036 1.0 
0.651663055895427 -0.7172893133211485 -0.7657312749358838 -0.4252896491087007 -0.608230277512881 1.0 
0.65033443549387 -0.7064948067272945 -0.4739849559119765 -0.32811782640662235 -0.9253047620448801 1.0 
0.3262572086773849 -0.41106898886250814 -0.6117350386647882 -0.4599388036334751 -1.187410803294684 1.0 
0.4078837867989675 -0.40564509634953566 -0.4851765003381803 -0.4240585404706921 -1.165808028251959 1.0910856382136882 
0.24794117196835241 -0.9785297404620003 -0.7124163785943198 -0.758943797591906 -0.7075758395965346 1.0 
0.4537989750660229 -0.732923616698293 -0.7809285300344039 -0.7200420244378295 -0.7265290597397752 1.0 
0.16630261657518522 -0.9941611543235117 -0.587905541567148 0.06363735576966348 -0.7944347519918165 1.0 
0.8212926669026382 -0.3022461363444093 -0.5772972068226757 -0.4755633608954917 -1.0582171327588998 1.0 
0.5049391217622865 -0.47856721172253225 -0.4785600015494651 -0.3142256374110264 -0.8889752328105444 1.0 
0.43346908987486893 -0.7807702530184636 -0.6671272087148774 -0.38562528652178546 -0.9970220840253551 1.0 
0.46195870668515526 -0.958561337199094 -0.6269728000680149 -0.5368938967961269 -1.0169223245164152 1.0 
0.4991871799285545 -0.7791328914452819 -0.6219022108766338 -0.5205403064106908 -0.6505719337149815 1.0 
0.8461345541855539 -0.4629466503624208 -0.5138052141646522 0.4765798004062295 -1.0680251126312381 1.0 
0.337454448920624 -0.6681308592808728 -0.7128281307194897 -0.6476299390073286 -0.8210873497139288 1.0 
0.14630926020722373 -0.548790862717283 -0.7023231701202864 -0.6674874073408908 -0.7947838495563462 1.0 
0.46625452806269513 -0.665493596047141 -0.8361317134879831 -0.7156840889596768 -0.8037426113680806 1.0 
0.34854458017901657 -0.7712676726252323 -0.7773134714862588 -0.589257136796086 -1.0660811869300213 1.0 
0.25993806861786556 -0.45613589094649687 -0.71811306554751 -0.29143325767867573 -1.25100732944342 1.0 
0.20570837991112292 -0.8509605904255656 -0.6828999139007875 -0.3190079641793567 -1.1018964724414795 1.0 
0.5457912761823387 -0.8866607708267854 -0.7680913402461914 -0.6251330268205757 -0.9620048066685392 1.0 
0.18173152872060366 -0.7709716594912852 -0.7682965481216941 -0.3265651565214012 -0.9378312006718389 1.0 
0.2951967650554201 -0.41499077605499596 -0.8369158855091524 -0.7840255271663643 -0.8048533282469335 1.0 
0.563080604073236 -0.7009466248248023 -0.5453771411425345 -0.009311687475968148 -1.2215472209262532 1.0 
0.1906827778294864 -0.4976868639058325 -0.8105533574995191 -0.6412914167459657 -0.6905297988367138 1.0 
0.5737783882239543 -0.7251684259054592 -0.8136733626398202 -0.3941879238204389 -0.30190820894838105 0.9991367860825527 
0.46450312087726026 -0.6338022390119105 -0.576319114114195 -0.45145800138279374 -1.1159379402896163 1.0 
0.47209996703330875 -0.6307792334812953 -0.789157697068099 -0.5585830265834258 -0.8516558742895749 1.0 
0.020537198884711002 -0.4171714179899607 -0.7843475138051914 -0.6647117724110346 -0.8314506600643888 1.0 
0.22497409295228238 -0.6714502032646389 -0.7480273023795948 -0.558690627194644 -0.7499956641841168 0.9677955662390688 
0.5194024494130203 -1.1365478446835953 -0.443775623280238 0.1876185655979284 -1.110219176378846 1.0 
-0.10263405196808909 -1.1450913928356037 -0.9252128358123126 -0.6889672560060073 -0.5803687833696227 1.0 
0.48159394204158573 -0.6969188276760224 -0.6930697193995403 -0.4580390305384368 -0.729321554985976 1.0 
0.5181066278242642 -0.8583186129503938 -0.5427699204390768 -0.5541940681658223 -0.9475377930387316 1.0 
0.5559602397751149 -0.4749667483699628 -0.40126112887754783 0.13748916145661913 -1.39639047525232 1.0 
0.5027770787854664 -0.5920257778653456 -0.8328220367440364 -0.44789474539985447 -0.3060803080628178 1.0 
0.0852217761133784 -0.7014789428735445 -0.739700495421413 -0.8267772858712107 -1.0618107377593244 1.0 
0.28357925503476583 -0.799856275840905 -0.8447472444043266 -0.38801750249796346 -0.7332611810773412 1.0 
0.3312269323120838 -0.8756804594584998 -0.8702263112704626 -0.6102950625490057 -0.7079332445060121 1.0 
0.9925057893469851 -0.5078240816918939 -0.5664811081893518 -0.4373753169782778 -1.0519789482601916 1.0 
0.19648882158269876 -0.5519650242593938 -0.4640075832102377 -0.05090097124695315 -1.4309040491828084 1.0 
0.6278083006264695 -0.8707906616250282 -0.6701465505950759 -0.055985151403061054 -0.8294443318923408 1.0 
0.03511143380441008 -0.6850789517421373 -0.6538515191043403 -0.3789171896732364 -1.1232426344023274 1.0 
0.16177840564517462 -0.49200739453368325 -0.7317691538999744 0.006223591267861185 -1.0818859493420294 1.0 
0.2637414227106051 -0.7126247365590095 -0.7182249611950056 -0.6455530464020377 -0.9819727767203926 1.0 
0.2133490265095961 -0.7014010395423051 -0.715420286384722 -0.22256474106156274 -1.0451040945908043 1.0 
0.16803953695279178 -0.6430897340835348 -0.7024945497952045 -0.6540553066204421 -0.7326509669080067 1.0 
0.18149026761773696 -0.5833445719476731 -0.6836399080499928 -0.6871677756121461 -1.3025518891544154 1.0 
0.13170240890151585 -0.716348795872542 -0.717031095046334 -0.7484068833412959 -1.0246803042728032 1.0 
0.49757043023568 -0.7936385673079003 -0.6394691358187371 -0.054431596418046554 -0.4772118735894735 1.5052709458484939 
0.7076018135290142 -0.37735790311620476 -0.35300099143799407 -0.23159450435666937 -1.4280903939776401 1.0 
0.20971490468831644 -0.8106958797817394 -0.7457857262749863 -0.5666941517493036 -0.9463621144611591 1.0 
0.16194459391252078 -0.996774323946736 -0.814956549979757 -0.3657378096961952 -0.9044020494407828 1.0 
0.2257232352936164 -0.918084148529865 -0.7579972217247756 -0.6658498500266471 -0.8020743656926327 1.0 
0.7447295585387073 -0.955286372482219 -1.0912838251789605 -0.5368037432082459 -0.2540371700893783 1.0 
0.3992923857542229 -1.0587957255353875 -0.9560461198628776 -0.4152103939596369 -0.5331840423656994 1.0 
0.36116905920906583 -0.8105638102579347 -0.8743626523754117 -0.6381303897660909 -0.941212361811668 1.0 
0.7507051056041067 -0.850204819213729 -0.6166341011816102 0.11250806179019247 -1.0294946214728977 1.0 
0.6112237235853435 -0.41528127990093244 -0.19796890314804452 0.5760155150540581 -1.3233891272078326 1.0 
0.1470978227438495 -0.7439457389327263 -0.5685226157396347 -0.3553057293822319 -1.0084599198407658 1.0 
0.31884540421878704 -0.5724380187943956 -0.5124609758927191 0.31260764914434624 -1.1766437252462574 1.0 
0.3236208793170584 -0.2943464055384336 -0.4075810808966543 -0.04332322747416308 -1.025527526636127 1.0 
0.17052710342142588 -0.6946328943494199 -0.7655847925446468 -0.5494082769524412 -0.5430538417577251 1.1603327718208962 
0.5381187718234196 -0.706617315823446 -0.5437937290518441 -0.3608951644972545 -0.9303531108081748 1.0 
0.40881553220108047 -0.8545495490903455 -0.7203918679164037 -0.3723002421332167 -0.9656790810550782 1.0 
0.5101443752361451 -0.7473173723527317 -0.718051122233971 -0.5552348103910577 -0.9584283060215303 1.0844135475626087 
0.48122933875080426 -0.3989793258436596 -0.6212028039717419 -0.49236516750928133 -0.94242543005904 1.0 
0.48141039352580867 -0.5647501822057556 -0.6982426220019243 -0.7590707672332253 -0.8225686649702163 0.9696508164710789 
-0.14133578964862345 -0.68173885089932 -0.7789814363985095 -0.8044089932644062 -1.0049137893419056 1.0693450117335113 
0.5962471825951073 -1.0219113762601735 -0.7683694552045375 -0.5922264115697223 -0.5915688258354233 1.0 
0.40524546182846166 -0.5628574066133909 -0.5407406768238051 0.12119539960859947 -0.9338827600999039 1.0 
0.3319096692071408 -0.754394243148643 -0.7980972877260599 -0.6177610765974884 -0.7746785413126088 1.1142052005119343 
0.3417744744835961 -0.9546043080847084 -0.7538084233667642 -0.3389235711349054 -0.7910267318429915 1.0 
0.37601309984182957 -0.8423134981209568 -0.48222889996381557 -0.4059900713650151 -1.174730544085206 1.0 
0.4757228624784898 -0.6950103827980957 -0.7237282093424634 -0.20968509219261017 -1.0754474653597 1.0 
0.5671400691140018 -0.20597571622587638 -0.046517370786539954 0.14066911668039517 -1.4676194350674108 1.0 
0.29287317795059614 -0.7133565243447475 -0.3348216155545282 -0.2873787101267437 -1.1544719632037561 1.0 
0.5826139843801099 -0.7390963713859613 -0.5578926374539618 -0.38566823730459576 -1.1482325529691666 1.0 
0.5247587610477833 -1.0335684399830811 -0.6204321370674489 -0.4950064734779342 -0.6335263997148235 1.0 
0.5952708416733646 -0.5772846935990275 -0.7260685997371745 -0.6236534676123073 -1.2224854913174608 1.0 
0.667085032499826 -0.9435732118492868 -0.6864024222826905 0.10283445612540092 -0.8001620490107343 1.0 
0.26537872295098747 -0.7002179643241293 -0.5136787221701257 -0.5334234285502909 -1.1467664056991167 1.0 
0.05087264176427794 -1.0617626820123538 -0.5654923826543615 -0.29279475455964443 -0.9526572371160821 1.0 
0.27996833000026256 -0.99249797066774 -1.0041231617072022 -0.27427172458117105 -0.7976877654019474 1.0 
0.3844478245707781 -0.509208767511991 -0.8328968891838688 -0.3053461938151129 -0.5562898323014058 1.2565798740138465 
-0.07652594890367834 -0.47219262430463593 -0.6308796609960566 -0.5337592979339475 -1.1768947173379076 1.0 
0.5002485942705858 -0.691899183328391 -0.9972623637027737 -0.028037217336705063 -0.6104572034618573 1.0 
0.32836910635096894 -0.7901439687896695 -0.9003119567987449 -0.5860540728859165 -0.5160212081946085 1.0 
0.24102137653570957 -0.23017251337869707 -0.5954300014569699 -0.08813891546919916 -1.363533104066925 1.0 
0.4583352102247094 -0.9349739173760094 -0.7758014566687873 0.34094697785973693 -0.6601628173078397 1.0 
0.3047562337281852 -0.7522251191351104 -0.7010604384923382 -0.24973739570247977 -1.0254210462782378 1.1060136240096927 
0.7406165398792778 -0.19705097055771595 -1.2311142217491167 0.38089450753117493 0.4897096383699025 1.0245720802550882 
0.2956144072524405 -0.44645603116698807 -0.5819023797510069 -0.49184730248592695 -1.087118001527444 1.0 
-6.825329772963721E-4 -0.6337615982781589 -0.9143763851100462 -0.5622372111951323 -1.0276747209047938 1.0 
0.3620701796997502 -0.8554389963910071 -0.5756338010882396 0.24383668561232102 -0.5269844565524375 1.0 
0.6054697123300545 -0.9167715810497405 -0.7985149102171344 -0.2293519042205907 -0.7830175951476884 1.0 
0.492655939580892 -1.1236666441276775 -0.44770915594862076 0.4966191770747158 -0.860516291488906 1.0 
0.24547948566466493 -0.7080457846445685 -0.9623068970735956 -0.7902198520080145 -0.852946863837032 1.0 
0.11652539126731942 -0.6579029356822594 -0.6448718494494949 -0.32268758378284623 -1.1098056385448754 1.0 
0.35703124047629226 -1.1141412581560162 -0.7343585247052091 -0.4448796954125856 -0.683579191859422 1.0 
0.4078243241713164 -0.8886320835282713 -0.7541020764507518 -0.1118902706322137 -0.8560043333184433 1.0 
0.284696438096997 -1.0755609777759814 -0.619726395891086 -0.1414107206041455 -1.0988822500807234 1.0 
0.6111471103065983 -0.5911532959600442 -0.6423766676671033 -0.4737696480645657 -0.45145880761389406 1.1467431186685155 
0.2135762898542047 -0.81040907203399 -0.581055960419474 0.08402102036838174 -1.2379041756451232 1.0 
0.36513494861562923 -0.7042775914972784 -0.7309113869464424 -0.7479801856653393 -1.0139363607950473 1.0 
0.22015132357622572 -0.6862849880614896 -0.7305058768224655 0.0899619133275072 -0.9421993532671341 1.0 
0.417039287034485 -0.5390020811624671 -0.784430025616288 -0.1349340032397833 -1.20662319323414 1.0 
0.5708733202565367 -1.0208655427170126 -0.5101997659678587 -0.09686367989260589 -1.0430626362700246 1.044621101637925 
-0.023086847030734086 -0.8523191474410211 -0.9127425288027139 -0.5326879273880959 -1.0913999248856925 1.0 
0.4343410789907691 -0.6539743227155299 -0.4758114752409282 -0.021497190086603023 -1.2371306507653095 1.0 
0.6038127427169496 -0.9839632936525982 -0.6616570902810793 0.4669544445020455 -0.85006882360604 1.0 
0.010576192849530706 -1.0132582842209004 -0.7414906639791563 -0.3108618845985412 -0.9038539065628849 1.0 
-0.1029038845209379 -0.9229896309819848 -0.7884408627177639 -0.3937280168773408 -0.8161569280409572 1.0 
0.2716590807924211 -0.5145901263226119 -0.6011480104054375 -0.2427074283584841 -1.268792882707071 1.0 
0.4610511999724236 -0.6996113338679137 -0.7084136811410588 0.4452508612260275 -1.1630662218633883 1.0 
0.3530705699343984 -0.9201262876071614 -0.7639646973853271 -0.1277852407368043 -0.8871700418163736 1.0 
0.4134815452642988 -0.6023498723929316 -0.7243776617296077 -0.4336806240297092 -1.2936825714808375 1.0 
0.7902524475185995 -0.7439772441954045 -1.0707289547579195 -0.06890592745450068 -0.6789253682847459 1.0 
0.5956586960294078 -0.7240809180339498 -0.6941286495088075 -0.5898800763557616 -0.8760989354886313 1.0 
0.2571540193602019 -0.7877716411903609 -0.9683451641840884 -0.614400554991312 -0.6123720196170691 1.0 
0.16867069142674573 -0.7084457636918086 -0.7524871710376235 -0.698156488719295 -0.940771930021697 1.0 
0.27118775070801804 -0.7573931934088697 -0.7388532499629197 -0.8011581254535368 -1.0203052060359905 1.0 
0.1806262698584772 -0.9785656121216141 -0.41551806615050896 -0.25514827765800996 -0.9088719812316058 1.0 
0.1556733318308533 -0.8385819883869989 -0.7715724132485373 -0.7514908457638629 -0.9346919520770935 1.0 
0.2579545986548439 -0.6659166411051545 -0.6241867183933503 -0.568872866341057 -1.1883563705659976 1.0 
0.2543097787389808 -0.4440020288957949 -0.7082050898930107 -0.7102380763485547 -1.193108614566625 1.0 
0.40483456200729967 0.17380007671570813 -0.4311421349518108 -0.4632750425743106 -1.121457198399991 1.0 
0.43310216343006697 -0.13810926633810292 -0.4764915198904083 -0.147480919988781 -1.392183450455594 1.0 
0.7513231750893558 -0.8478966712128719 -0.560527337463027 -0.3011884410463694 -0.5054351732026986 0.6547622406311239 
0.18335832669354066 -0.21177056937919037 -0.6278816818460551 -0.603008469717602 -1.5472144668872234 1.0 
0.3452489657328841 -0.8511285645697865 -0.8570722182535392 -0.6588481744618708 -0.8373700358791111 1.0 
0.4522872683241502 -0.1530698261988619 -0.56876382003317 -0.6360299521603837 -1.1626224381037182 1.0 
0.2741061512916223 -0.6662901195199237 -0.5133391451976014 -0.18261155320671202 -1.205296252373094 1.0 
0.6895450842866856 -0.636061905692294 -0.7679351163248983 0.22097357387092947 -1.164166412890987 1.0 
0.40562416026453024 -1.0372566628042583 -0.4069606710141957 1.0153309910371882 -0.7327134715626559 1.0 
0.36573360870026866 -0.8280820831861198 -0.5197814027070478 -0.16878739744793128 -1.1677490551471963 1.0 
0.5728143062615628 -1.1307709946254654 -0.7510894816037669 -0.16937527106068953 -0.5195587612389901 1.0 
0.3092229573478046 -0.8184560077072269 -0.7862342155691847 -0.4892663413621006 -0.9044101799949208 1.0 
0.3976105768939592 -0.798283841642464 -0.6745185837983142 -0.5515140796749549 -0.5134136682835094 1.0 
0.6049996711267717 0.014920485270100644 -0.41248999255594837 -0.07449785759474205 -1.327090256291156 1.0 
0.7331410167629185 -0.3762926477601407 -0.5481304463713502 0.16518912598822277 -1.267143780751011 1.0 
0.3728929292342333 -0.4358159613788594 -0.7051868538596955 -0.24401756371566796 -1.0254527260308814 1.0 
0.5547453473899131 0.2969051984864625 -0.731560949757954 -0.2759527841044713 -1.2391090752922536 1.0 
0.47791989384857275 -0.007069172160511007 -0.527976048073465 -0.7354507268121279 -1.0928830362471864 1.260758900073064 
0.031314093247075354 -0.9264777928665997 -0.8222749557515964 -0.5170887491608704 -0.490943796513079 1.3404917879660054 
0.34245188561135376 -1.115295955562156 -0.8288904844704698 0.48767943859448815 -0.5985944859662402 1.0 
0.5524403914763019 -0.11426993099336485 -0.7892357854605859 -0.6558844957247454 -0.867872276474921 1.0 
0.4051198492585007 -0.7475404526891573 -0.8430834278581716 -0.6055302722209616 -1.1368905855660676 1.0 
0.43214573803486944 -1.0009805959252098 -0.7492324266080461 -0.33310184514093294 -0.5033770586674857 1.0 
0.36541891986201924 -0.8342686292651799 -0.6830212761567518 -0.1459952891717641 -0.9975466804061589 1.0 
0.36845336744050733 -0.5449402602970059 -0.3093117195371496 0.3010474880692437 -1.1480251042727994 1.0 
0.6265074971155032 -0.43748711099169246 -0.5577472861538454 -0.4966607097530508 -1.0075225121373068 1.0 
0.3633625598019792 -0.5275124702058493 -0.7440651768395362 -0.49673431506874344 -0.9148677334504814 1.0 
0.694707800427637 -0.3705404355072751 -0.7400014385984104 -0.20792627582925255 -0.8353329984229653 1.1232807464020942 
0.29689045880274395 0.03017063649681923 -0.2986591844034476 -0.1516432326864472 -1.4688392521820803 1.0 
0.36776575919903226 -0.8390869280759357 -0.7251715426917736 -0.5489142900714697 -0.9494326066730305 1.0 
0.4224412811173142 -0.3313668931311812 -0.5016307318867762 -0.2298576409897937 -1.2493900497221757 1.0 
0.27302161083896065 -0.41743275002944175 -0.5072697820625854 -0.3923764394122149 -1.2005743899951657 1.0 
0.12242417640608991 -0.6446901057362578 -0.802477724115804 -0.3404262243996334 -0.7542734463873454 1.0 
0.4216463859434233 -0.7489033936723659 -0.8536787876318656 -0.7822357987243803 -0.976983548079925 1.0 
0.6603389135980654 -0.311597059951471 -0.42058907836820103 -0.2089682057188416 -1.359581668328438 1.0 
0.456845811353055 -0.5101140296776424 -0.6807720261306365 -0.24261721200359948 -1.1122205897880646 1.0 
0.11558685171579898 -1.1275189501681155 -0.7188555989444954 -0.238573243193815 -0.6122436783891726 1.0 
0.5501860077349681 -0.9789922039495641 -0.6536184857965638 -0.16609904688543373 -0.5174878602323194 1.397414969296251 
0.3544432651252878 -0.9105347128148784 -0.7206830388328885 -0.459611271718878 -1.1269006825727335 1.0 
0.602988726130519 -0.7179513148274995 -0.047544237740810506 0.44420520269879243 -1.1773377159939427 1.0 
0.6708735572448093 -0.3307739836379389 -0.1973713670182603 0.16004432751806427 -1.231559455871938 1.0 
0.17022573516963319 -0.7208185208546367 -0.8305248438528882 -0.266320997712035 -0.9342575063581299 1.0 
0.15812599010899975 -0.8398938204463251 -0.6023292593775305 -0.444854745762255 -1.2024337163550147 1.0 
0.3736663077160922 -1.116529310506987 -0.792925202355473 -0.04907865608350914 -0.8941194567960052 1.0 
0.29451845930737347 -0.7010507765872169 -0.6951041910581439 -0.24742837421020808 -0.8971239306798043 1.0546821639865274 
0.86794177919677 -0.3272954254690486 -0.4905145029210901 0.06863085921878812 -1.0198192432481539 1.0 
0.3499815590357951 -0.48936467334743594 -0.4946901501153478 -0.5947739928172353 -1.151999645891936 1.0 
0.48576337779960493 -0.41796658466285713 -0.438008438224144 -0.25214469141751134 -1.282892449227972 1.0 
0.08663436928095636 -0.26619645322401675 -0.5706308818202531 -0.43271350328921565 -1.1280909912115706 1.0 
0.5958657367457312 -0.29364674414465364 -0.2839519025548967 -0.01223041006185994 -1.4648460477737142 1.0 
0.2478312788192728 -0.7403303698433671 -0.4617525284072197 -0.27532844459314315 -1.1184074147162404 1.0 
0.2761887286281099 -0.8175315509576118 -0.5047555763990302 0.6805831165238215 -0.8896435371460232 1.0 
0.5308596294295995 -0.5768833912364999 -0.04899574172140945 0.6430673139864744 -1.2424571399006992 1.0 
0.6097388604303763 -0.7522200574864242 -0.046184692967542705 0.9151129361245349 -1.0505816385395246 1.0 
0.27133231111250106 -0.6542041092876072 -0.5226752669546335 -0.52692917428159 -1.242351428230936 1.0 
0.559569838776518 -0.6544740936336957 -0.41854829799430526 0.2521648305242823 -1.3943122799451744 1.0 
0.13063159098875995 -0.7198967938895414 -0.5696038481531138 -0.2771602555749147 -1.343325513959909 1.0882966329957606 
0.31402429389556125 -0.5067973296568724 -0.7558492091605439 -0.5086334488948686 -0.9711433030924038 1.039495978089701 
0.629314083850274 -0.6315365683832371 -0.7016570705189099 0.13993533819968468 -0.6391085103107839 1.0 
0.4282849394559686 -0.5980264405464785 -0.4537410060504301 -0.2804623022956537 -1.4654811325799266 1.0 
0.2915924963913777 -1.0382533003499415 -0.6503031381599775 -0.25993738069779926 -1.110068969995904 1.0 
0.22760462986117588 -0.11445147396540298 -0.5040438694747427 -0.29552330535267674 -1.6282709771173896 1.0 
0.26215529035766166 -0.668830699631908 -0.8417571743370644 -0.5434774970265901 -0.7971054428465684 1.0084577090628088 
0.07659905323889242 -0.7621233871226031 -0.7624714590938055 -0.6633143531681953 -0.8059019837437394 1.0 
0.2636627344128695 -0.7179642313602693 -0.48953167096981104 -0.28571980924963214 -1.217224807868331 1.0 
0.46729563213201525 -1.0231089729903806 -0.8762516616891584 -0.44780281123977317 -0.523231394837527 1.0 
-0.06780896918710033 -0.5284984193643577 -0.5536457151525922 -0.41349935825194883 -1.078835970409406 1.0 
0.49326305875551935 -0.7741493708427258 -0.6457099097980392 -0.4211766085018808 -0.8073019883476255 1.0 
0.37391894805488235 -0.6854477082678743 -0.7037050360492924 -0.6210222900151725 -0.7523064794807908 1.0 
0.4951668187817328 -0.737407984459136 -0.4297775990118017 -0.33473981494568283 -1.162378269369755 1.0 
0.3903364624675339 -0.8679968325748796 -1.0090966206202712 -0.7795978817227689 -0.6027746153370961 1.0 
0.33181503558138653 -0.12280245863698439 -0.6149341878076351 -0.4364787653591018 -1.1627138824079148 1.0 
0.3604768984228418 0.17310145906210406 -0.661030936739007 -0.34454745301626605 -1.083471632398283 1.0 
0.032859110923051146 -0.7125109689093558 -0.6674511218609445 -0.6646881672268622 -1.0866055406356399 1.0 
0.2075155346555948 -0.9135843419544611 -0.9463086170009304 -0.25574458356684326 -0.7338009933455115 1.0 
0.3233060812086009 -0.7636622112117905 -0.883464046433631 0.21671078310948388 -0.6234369192866733 1.0 
0.5310097971342554 -0.9479177597708813 -0.5330855073832309 0.2746014781913403 -0.8339811120019319 1.0 
0.009961303435087436 -0.6979779892005467 -0.7865083570967112 -0.2606275844552051 -1.290915438706474 1.0 
0.09484283057725125 -0.8422329020755964 -0.5735028496829188 -0.3925064269677339 -1.307471602285306 1.0 
0.15123138086502294 -0.9777848004003107 -0.7948771598613505 -0.5735060121794576 -0.8478679350250892 1.0 
0.45947611099632596 -1.1416163933822738 -0.8172478140658153 -0.20071411106016573 -0.6409728350061988 1.0 
0.34219705729450905 -0.5188609388075833 -0.5842069054069882 -0.6128347899778647 -1.067213324978944 1.0 
0.546006585413972 -0.6450495479303765 -0.8106191526212541 -0.6760382141179284 -0.9318626443610162 1.0 
0.25371674764444313 -0.7874828469333874 -0.6270471102838422 -0.46584210277992316 -1.2623955623849221 1.0 
0.12429824783767897 -0.7869989251928163 -0.6696690649857819 -0.5733494522153877 -1.0895180949546948 1.0 
-0.01019531842221879 -0.59621269189843 -0.5420015583109621 -0.4829398402457245 -1.2592437717066365 1.0 
0.38562427795759974 -0.7612241065864214 -0.512334109458826 -0.2489151949433997 -1.1155688306434026 1.018724359565741 
0.529650252869188 -1.0566992080135025 -0.7173663110611401 -0.04166369080959229 -0.7799692545055094 1.0 
0.2743445579615914 -0.5349540913597542 -0.6522901328262382 -0.4557319097243785 -1.0581880350293444 1.0 
0.37773272784623996 -0.4453666850747266 -0.7586866369723904 -0.2937631504431381 -0.6551864327101874 1.0 
0.5289715777649175 -0.6130955923895466 -0.7378836924766653 -0.14470780880266232 -1.060258529705128 1.0 
0.7113679278274699 -0.43701328425919383 -1.0343641631900748 -0.2525259355636376 -0.05269057352398055 1.4597916945673213 
0.4439545047877597 -0.5805495513940531 -0.6202173579195995 0.5988475950820427 -0.8790247962015152 1.0 
0.3086301463629038 -0.7187534230494153 -0.9243259168578456 -0.4781788011230823 -0.5465627453267237 1.0 
0.6048250185417995 -0.6447546525345532 -0.37463453006567365 0.15780503112879346 -0.947561441789953 1.0 
0.3019750781671155 -1.0057753014943362 -0.5080554719010419 -0.12691633028742844 -0.9320802117547927 1.0 
0.41152789215479607 -0.8836361491543722 -0.8561892837276882 -0.8085012964572189 -0.49404811735649795 1.0 
0.0118642677705362 -0.5776520090314257 -0.6212034123270354 0.04239798749975008 -0.878882918903896 1.0072058095638188 
0.5064121949358953 -0.31759922072090774 -0.15268555388236218 -0.08170786220699466 -1.3772567487567589 1.0 
0.4215210280771648 -0.9107707959736006 -0.18911742788745603 -0.15078409936212173 -1.3486684646497338 1.0 
0.7953971198710365 -0.9525501859389813 -0.6891069587973844 0.02222878647628632 -0.37015534295580715 1.0 
-0.07125584057843987 -0.7225803180953168 -0.6839184799951907 -0.580648023529954 -0.9175621262208473 1.0 
0.09301190500331624 -0.7686877841756123 -0.765567481445571 -0.7044203414691836 -1.048294974341716 1.0 
0.5130639678873226 -0.7790144627391083 -0.847482973205933 -0.3598977208550365 -0.40960548454711593 1.0 
0.53278097424933 -1.0546019013022754 -0.7821304050668113 -0.1767742956954093 -0.42409296603496727 1.0 
0.46052229231139225 -0.8713349480469934 -0.7855094766548796 -0.19437014944610362 -0.8167218636931225 1.0 
0.40235361106781947 -0.4714970076152394 -0.4362226638378906 -0.1796360964107144 -1.1501319958874117 1.0 
0.405753818034971 -0.5408450440274721 -0.45403290281944036 0.10464259001115281 -1.2522907978562186 1.0 
0.36592202623011844 -0.8257700517058971 -0.5929565227662725 -0.10100378194672202 -1.0008962324234885 1.0 
0.24345670279127052 -1.4149286003886985 -0.7269133212731443 -0.0031595402141029656 -0.4061212537455403 1.0 
0.10841574256690567 -0.7367595276100316 -0.6492370403800438 -0.6092695322977139 -0.7982982255566391 1.0 
0.5563874696768696 -0.8882139189807319 -0.7514260164662597 -0.30759972109118094 -0.4313497775632435 1.0 
0.4249533692622887 -0.4450047071911181 -0.5796364297722603 -0.653054394525423 -1.184346606520437 1.0 
0.2762930986871568 -0.3090783381903279 -0.9166515440104903 0.2210617512408277 -0.6814451923108928 1.0 
0.21379960680925963 -0.5666081836331593 -0.4527012788888168 -0.2568965871676357 -1.3931996458007143 1.0 
0.4133403440271793 -0.6926425085187566 -0.7206684861306363 -0.5581453879512177 -0.9502462789149932 1.0 
0.3301785254404638 -0.8326432686534488 -0.8314383633403679 -0.14826888724472398 -0.47693653913384043 1.0 
0.4012924150309074 -0.7361101534936408 -0.6858432521259373 -0.3077424380593213 -1.063054641418909 1.0 
0.47521246744636225 -1.1919266060329663 -0.6381920213336253 -0.2116173168752648 -0.0987718704599145 1.0 
0.2860302535066243 -0.45173416986048814 -0.47962002948825777 -0.43307198228789623 -1.0782610562792994 1.0 
0.12888817723081608 -1.3601597202109004 -0.6709586918076773 -0.011020174417111974 -0.2296262103005144 1.116778894651728 
0.037139976762494 -0.5890419768428892 -0.5761748447655212 -0.5185100561642494 -1.3301748908202513 1.0 
0.34085803258094316 -1.0407705144881134 -0.6943473296575139 -0.3114850991770511 -0.8399612755019144 1.0 
0.05400415732850033 -0.5661332176787529 -0.5860101331840074 -0.35228911531556556 -1.2798682721939443 1.0 
0.5756777057160499 -0.5823414179708506 -0.6812061125803172 -0.6361822250466389 -1.1164990241771287 1.0 
0.47964675173629895 -0.4964032973859045 -0.7279063659206468 -0.37175076976917637 -0.44003345791237847 1.2511067317032099 
0.9979003608149177 -0.5722001565636037 -0.7407246406120949 -0.09755635854641855 -1.1704144733209985 1.0 
0.3567463246994342 -0.6210319890004922 -0.19887497837339765 0.3864821114410153 -1.2988246544351019 1.0 
0.4084474291190497 -1.0905359884594599 -0.581883127355275 -0.5009833862000904 -0.8489619969069104 1.0 
0.402094408470029 -0.6505885826213333 -0.6348448891593679 -0.46427385759809475 -1.1939721226525302 1.0 
0.018278633001173654 -0.5828468427506304 -0.7682379525588298 -0.584419525040472 -1.0185588824616072 1.0 
0.08399713748030035 -0.4322796259199998 -0.33063032290236993 -0.2022581524287434 -1.237174173968566 1.11263378409395 
0.015314510707409273 -0.7124083041415966 -0.6773778866426305 -0.7839436445442548 -1.295112111202846 1.0 
0.40680243207593747 -0.45061388493769833 -0.7189201744178199 -0.3798596360734239 -1.2455503532199514 1.0 
0.7159558034902415 -0.727952025956258 -0.636298510515014 -0.39872054288158143 -0.9880172109643676 1.0 
-0.10410804403070173 -0.7340316742982073 -0.86921209110709 -0.5831130095355183 -1.1605692425752385 1.0 
0.3335210583544039 -0.7550428401928109 -0.6656857980394493 -0.6238951583772708 -0.9394830876836309 1.0 
0.8868292686419114 -0.6280693918035269 -1.0078062634728644 -0.2916687381192853 0.20297665990917854 0.9619922689134834 
0.19704127587129364 -0.257573033586031 -0.7324729490037298 -0.15330134276203053 -1.1414183587261582 1.0 
0.6678238856409032 0.16729957729899206 -0.5546118260950084 -0.5900920085839367 -0.9201293906705117 1.0363435056113808 
0.81626465509687 -0.3366513518844584 0.020865482509914025 0.8739174247073647 -1.4362036253875725 1.0 
0.6556204862036891 -0.36041194103188806 -0.22615058848426228 0.5132183898178155 -1.3745093366195105 1.0 
0.3617498128676444 -0.4367945516140584 -0.46521691021588246 -0.4139708565490426 -1.3496284428098384 1.0 
0.6099210027220245 -0.7202498218278127 -0.5070215197331146 -0.3843224218953302 -0.99370836263849 1.145265982564538 
0.48885929138738926 -0.8523252149508497 -0.5172611581882597 -0.31102326088579874 -0.9968976242928292 1.0764833056944425 
0.6189438771612781 -0.4262529955758021 -0.5966727117564807 -0.431331517583672 -0.8120617929917655 1.0 
0.37317063541319384 -0.306886979957299 -0.6778094726907804 -1.044172380585098 -0.711520892253479 1.0008648307378383 
0.43926953757892423 -0.8641823575933528 -0.9485093919750989 0.6124173253506957 -0.48066551165045107 1.0 
0.28372329764101156 -0.8883841822630446 -0.6801171911723836 -0.5709241446832374 -0.6448248666492331 1.0 
0.6771551217905964 -0.13007335132855197 -0.6032938540351048 0.05030653671625207 -0.6311389145384496 1.1072437417078071 
0.07436717919315149 -0.7255106992927812 -0.6907845621918439 -0.4451648004594752 -0.8622723550897096 1.0491232465159523 
0.4674866270127613 -0.7440816170815687 -0.7626325752852144 -0.5080939215996838 -0.741485956043461 1.2116961555817416 
0.47005710683128865 -0.3749066230204965 -0.6471650990094526 -0.3836968708930692 -1.1982093913531466 1.0 
0.30566571042514756 -0.9186399745063085 -0.6704411580878709 -0.16633621813214328 -1.0637184611476742 1.0 
0.451713580073156 -0.7290540592784321 -0.5805408025401557 -0.6031927901162268 -1.076977180890859 1.0328549835676737 
0.3287366930356379 -0.6427359730523492 -0.3055900553962816 -0.11357730552700648 -1.3068838624622323 1.0 
0.33382028000796676 0.005409929534142155 -0.8084452954754849 -0.16255614702964596 -1.0873199320188156 1.0 
0.5195607510777874 -1.0488248174012953 -0.7494899069407389 -0.44231289364250187 -0.6297487793212058 1.0 
0.5777342529827147 -1.1514301338376614 -0.8458335213732233 0.39983263040689704 -0.27027050575673095 1.0 
0.7523309877912945 -1.2721837204984694 -0.3139933843687442 0.21164012177780422 -0.5524128981150682 1.0 
0.2350107921264872 -0.9654774050399858 -0.8280463090730444 -0.49660954648277617 -0.5626089208430659 1.0043087775572361 
0.5754446595816384 -0.45277153152746524 -0.9147724730468355 -0.4570992882783989 -0.7332212655972709 1.1025770866679263 
0.09492253438849411 -0.9917254152946767 -0.8672890234197302 -0.7013146316007232 -0.802820015479649 1.0470873787881265 
0.5011668450967387 -0.8923603822380822 -0.5725129047933046 0.13956632637532745 -0.9954026174002859 1.0 
0.4061382122581289 -0.5281045576597005 -0.6140029509283041 -0.15696402801034157 -1.266301421806103 1.0 
0.5770996551402339 -0.6499931361800352 -0.7524771833617621 -0.5109802293665473 -0.5708392383769365 1.0 
0.40336780724678417 -0.8679800794417726 -0.6348195864152711 -0.4416196543190287 -1.0706640607943383 1.0 
0.3508822262145896 -0.7454054991996698 -0.5723364468254267 -0.40272236474807166 -1.013748932711283 1.0 
0.07729997384626439 -0.5404097523022611 -0.06028441325080126 0.3416451561072854 -1.3241673095561732 1.0 
0.4053203370047987 -0.3084273071835166 -0.419944626861823 -0.3458408301965655 -1.5058100933697698 1.0 
0.5384365625709296 -0.9357024542972658 -0.4695502150250826 -0.09841109529692377 -1.1839806128582282 1.0 
0.6182746687709709 -0.4789115711487131 -0.105658328603903 -0.15747580666364028 -1.5570405951388062 1.0 
0.40760985714710135 -0.3768158930095951 -0.6588387022035552 -0.3058361184645779 -1.1310480055478738 1.0 
0.3158795604493616 -0.6896347623733478 -0.7161647154429069 -0.6432945749941906 -1.0798493547898038 1.0 
0.21285038143337567 -0.7894288076018147 -0.7795075144867244 -0.36581086135538343 -1.019560252092203 1.0 
0.3974031250721272 -0.7567265443416158 0.34002525484984797 0.687934548177083 -1.3444614973832802 1.0 
0.3390934556668048 -1.0094423386082432 -0.7946349022997119 -0.3248257915154096 -0.856769968397538 1.0 
0.336364421281901 -0.9546202450493398 -0.6279607067747935 0.012499353089930105 -1.1783169485408274 1.0 
0.4505408287786193 -0.7863649002356974 -0.7245649128459554 -0.3636376297340533 -0.7665030795665788 1.0917347231536836 
0.5447896705635946 -0.829086369960175 -0.5510211043245644 0.04766637365837681 -1.248062141816205 1.0 
0.5017553124663766 -0.11404895021825208 -0.6851625507245113 -0.627042006793755 -0.8159257171544385 1.0 
0.5707887772317489 -0.025180646507472936 -0.5598306157982459 -0.07135241493194147 -1.2761921637932248 1.0 
0.11127507038314824 -0.5280561923624267 -0.41522027195274086 0.1524400480514592 -1.1162583067047565 1.0 
-0.060793832375883636 -0.6227312565602562 -0.7980479201154679 -0.26550812971833637 -0.8130811186123201 1.0 
0.13605036597157572 -0.7667654827311623 -0.4346805762979167 -0.5820076213245271 -1.1735572200883682 1.0 
0.3694405681088411 0.040090900451606584 -0.19997584018907058 0.21556758958253036 -1.3947227137257818 1.0 
0.23398251415814736 -1.1980179789557648 -0.6189446233506506 -0.22386892241737444 -0.49031965124702864 1.0 
0.27772410890211185 -0.4309450494035163 -0.6903180965045053 -0.7110643715506386 -0.9780943886007185 1.1176508941033203 
0.51683128729484 -0.7965277636801827 -0.6271675524370719 0.02679598234627051 -1.2109486474630116 1.0 
0.4377435992862706 -0.5675378029360049 -0.7387509428447504 -0.5888282048770498 -1.227456516114313 1.0 
0.4602612243762946 -0.667446461067252 -0.6656719306282429 -0.5374414970658363 -0.9176052115562467 1.1164028718483758 
0.7617532633098327 -0.4009483305506643 -0.7067064567647987 -0.47262576235534365 -0.8021830393984558 1.0 
0.12523620244519998 -0.5729059043232364 -0.375524216320871 -0.2291595291504456 -1.303338570068951 1.0 
0.5013654902402447 -0.38984728996995593 -0.7485956180804135 -0.35122292595756627 -0.8258315012160948 1.0 
0.3949979280060535 -1.0617323404426664 -0.6849030433679474 -0.16509167572251843 -0.6870403398845993 1.0 
0.2995649730151147 -0.8002516713912936 -0.687783391297163 -0.43036209114512003 -1.2004486853985181 1.0 
0.6189403412932252 -0.3811589117560194 -0.6456139129402902 -0.43091735017760613 -1.139611868950398 1.0 
0.47518427094767446 -0.7099305601082952 -0.4645437824958734 -0.14113761891803756 -1.1244038380211532 1.0 
0.3525172996291148 -0.26808146847078135 -0.4064163581861799 0.5629508961303572 -1.2640743793105977 1.0 
0.5957935020895345 -0.3555249408493482 -0.2989254055543253 -0.19407538316374867 -1.0913422239312973 1.0 
0.28829756844727955 -0.23524947054641152 -0.7241558876358373 -0.5547169588730874 -0.9598198423645953 1.0 
0.8297656009839952 -0.7185529080679409 -0.7134883782706959 -0.32502172706325716 -0.7347382990168931 1.0 
0.20411680707433186 -0.010202281329023967 -0.3088662767448935 -0.22204236289708232 -1.4653800923944635 1.0 
0.49437534348935835 -0.20995713690307402 -0.4510619800845795 -0.24136800027510485 -1.247695357827551 1.0 
0.4164946081404405 -0.9059228698085156 -0.3044345875480326 -0.09885485233877085 -0.976775929987146 1.0 
0.3794666252557821 -0.6267738863916458 -0.580503876524379 -0.29271187702603024 -1.175213142093819 1.0 
0.3639263194061129 -0.013939389047619672 -0.06117126107704803 -0.12029099020948149 -1.7156088834799292 1.0 
0.7723809611998583 0.1624543923269376 -0.2030581531760216 0.2991035476712704 -1.4264442934858015 1.0 
0.4144269145555283 -0.3714718769343207 -0.5948763157919847 -0.23080918032215872 -0.8427786757921067 1.0 
0.38469706503624196 -0.537112406140593 -0.7552923926423103 -0.6744510195062152 -0.8491438875031787 1.0538416511096365 
0.6575554173191197 -0.803121585690704 -0.6449392620653758 0.26236911478735797 -1.146236077434697 1.0 
0.27675132613861503 -0.5246924875192898 -0.7532938739473185 0.03781239535812203 -0.7420035107075349 1.0 
0.6708465377083853 -0.5828921881394388 -0.19391453743601622 0.7319998503132016 -1.355149904389985 1.0070834509825193 
0.5794668537687313 -0.566485194230723 -0.4388892894469095 -0.2887633333429893 -1.087636224010411 1.0 
0.04918800528943615 -0.5812526103376642 -0.29186655058249833 -0.3156695802413375 -1.3714326424777878 1.0 
0.5814713633671019 -0.01142718064831939 -0.02348327983000037 -0.03393408739304464 -1.542300682114671 1.0 
0.5700697813295548 -0.4976190053878625 -0.34199401148319797 0.5144144783115924 -1.4001101037655757 1.0 
0.8465557436296648 -0.8411501887933462 -0.7025440716404341 -0.3147714289071128 -0.16890534351770442 1.049421699733625 
0.1949810133958369 -0.7196570015154837 -0.6922955185870068 -0.658307249676889 -0.9899663720681 1.0 
0.8056573095990027 -0.4795785034903786 -0.2177050514496299 -0.1295290620362918 -1.2502287461312493 1.0 
0.4395434391519445 -0.4256556045074639 -0.6593973780134815 -0.6994555578315155 -1.0609907984567466 1.0 
0.32464124070695266 -0.43409398944984096 -0.6738756849967261 -0.38547881880223417 -0.9102204779665715 1.0349063886532994 
0.22007665430623966 -1.0175761869493831 -0.7635768926403006 -0.3799817316855838 -0.7747947747267657 1.0 
0.1691788329065621 -0.385683455400149 -0.5355668204301449 -0.5835180066209439 -1.2195459987044153 1.0 
0.48937036161359104 -0.938582869678245 -0.7913050087510266 -0.7574897566682257 -0.644565506442462 1.0 
0.16124981736796884 -0.3069903651388307 -0.5642121077787161 -0.239101006401406 -1.3740502084964412 1.0 
0.23947570673254634 -0.7958234367647009 -0.6656820585290109 -0.010974440919464895 -1.101162797471962 1.0 
0.10131261438532335 -0.40427300363684693 -0.7017260882015308 -0.6884430187792773 -0.7512010612969016 1.1317754122843666 
0.14748960413195325 -0.5770720223498192 -0.7932055624046316 -0.5011892697695564 -0.9632684574928989 1.0 
0.0434042716356133 -1.0227935833650572 -0.8764002884998131 -0.6676073117693002 -0.6810143306285773 1.0 
0.6238787008289258 -0.8863693264767586 -0.4806648944887046 -0.2422401996620827 -1.044334063477217 1.0 
0.3748610569849861 -0.8857509995546756 -0.8578709948788331 -0.5011302056856388 -0.4976620372815231 0.9448426372120734 
0.42712657904446005 -0.37228789882915786 -0.7467500084296711 -0.6364882117858986 -0.933890190982908 1.1920736727481598 
0.472128140386308 -0.34109557913710825 -0.7212973423177833 -0.7190648370916966 -0.8319407206017717 1.0 
0.21885416269429392 -0.4735619982349884 -0.7599570334943785 -0.754270235341616 -1.0585556457100884 1.0 
0.4512222858846687 -0.9228529721983615 -0.6856120706429586 -0.45403993716777447 -0.7685286310940002 1.0 
0.5410830360777762 -0.4856319482965465 -0.9236982345602138 0.4253249093823118 -1.0985599918150604 1.0 
0.4341436202916446 -0.3436531181444802 -0.48361089715053307 -0.41853181390257366 -1.3931124826651415 1.0 
0.461723869930788 -0.9208281047305583 -0.5566845513539009 0.8303718458407922 -0.8077178334771923 1.0 
0.30187683190134473 -0.7965660256278078 -0.8562866364910696 -0.7429803718820647 -0.8621461877065542 1.0 
0.5315412813290705 -0.27014387917399296 0.13273073008375685 0.5966631516818343 -1.112763819295922 1.0 
0.45507555770811 -0.6682998745795515 -0.44624358468322 -0.07643780392544049 -1.03546142972376 1.0 
0.254840126028505 -0.4845118137417839 -0.7391224446045602 -0.5734128111184265 -0.8203358249774763 1.0 
0.46654242585676803 -0.4689666009498136 -0.996854938518032 -0.9634532020989065 -0.5765089119470327 1.0 
0.4499460889778775 -1.0783797242921567 -0.6937482253188597 0.23431569255649656 -0.641102811535681 1.0 
0.39762354513527143 -0.7327570633103112 -0.8714192405929236 -0.6121187342294296 -0.9899922496990176 1.0 
0.3691314260062992 -0.50700998269652 -0.10764037691400315 0.26903274029063745 -1.4716816890435935 1.0 
0.5405213340394734 -0.26957686785198004 -0.6400434970796369 -0.3604916586752279 -0.7070583686868053 1.4140522837493317 
0.2636776354527759 -0.6474566463202359 -0.6415867629665821 -0.5544713221819527 -1.223296577712772 1.0 
0.40970946036446326 -0.7347590250215988 -0.5497821534227797 -0.3281849714594543 -1.0810748414468265 1.0 
0.3236663179812287 -0.5172438648364678 -0.7269737808277072 -0.6199993910141571 -1.0853348514935242 1.0 
0.4411101176328417 -0.051343264010178406 -0.6509905305442749 -0.6437532648729396 -1.01799235432296 1.3593604846978862 
0.32270399388246823 -0.8774799793176585 -0.5222430475648541 0.07742466541139749 -1.2467362104807471 1.0 
0.21753124740316337 -1.0764195198249806 -0.8236780557909323 -0.6103785983438434 -0.854821281073559 1.0 
0.6726639219725985 -0.4821614453816959 -0.6819110144728546 -0.34285381411327825 -1.0838013484734201 1.0925487806865182 
0.2760675228310619 -0.12657031513083405 -0.7088917751791128 -0.6457003090092284 -1.2187929811811153 1.0 
0.5570434717951727 -0.5988327044527691 -0.7553926040166072 -0.29025308629594215 -0.8607612357351305 1.0 
0.5074918269555246 -0.874808750506264 -0.8260446768883901 -0.6252660909481967 -0.8495496054054071 1.011972537393896 
0.662211616861418 -0.07770997931406871 -0.7358667731185138 0.11563115224893396 -1.0855193737442317 1.0 
0.4226454440728343 -0.2137983905255317 -0.514464224594937 -0.3244638909406528 -1.1284973713187783 1.0 
0.46274722702588084 -0.7065521580852065 -0.5778120654952132 -0.4213409804867663 -1.2007615875990783 1.0 
0.4085863220218023 -0.6288837733307706 -0.9360808080549358 -0.4063056036687495 -1.0217448823673625 1.0 
0.27707311613979846 -0.6625756526201645 -0.7390926785798451 -0.5981196217118221 -1.056830283942029 1.0823534485588606 
0.0114275405208813 -0.9938770682629389 -0.8164280192408703 -0.6353683509934648 -0.9673598049291392 1.0 
0.5732251864500322 -0.40702364231737526 -0.8657626307230624 -0.47370087458165033 -1.0306198242185527 1.0 
0.2239286482410116 -0.7751029292402003 -0.8011699442187649 -0.2423443643569608 -0.9675610660597505 1.0 
0.7030085939894022 -0.3781144778921276 -0.723114678581444 -0.3741142338560326 -0.7911880165613653 1.0 
0.14088938948053858 -0.9263817818768586 -0.49173872510611827 0.20231043554939887 -0.9742236971382333 1.0 
0.6521683329451372 -0.5905270215838707 -0.13934502183909217 0.8833196348644108 -0.9712849333258319 1.0 
0.08567417614268232 -0.6917324539309379 -0.38366082740615703 -0.16688859213228924 -1.3625121748550684 1.0 
0.4371853179969589 -0.6524073652005935 -0.8206823757694478 -0.686537984989902 -0.9692895488596118 1.0 
0.32193916062255556 -0.4650455796954694 -0.3189698151525289 0.16857943963769184 -1.2595734534555023 1.0 
0.4990823663546532 -0.7847643856799897 -0.5893084694852523 0.11796867523121939 -0.744525492447464 1.0 
0.19780952698238752 -0.16420377785632975 -0.3059867550217 -0.3790903168639458 -1.306323122604964 1.0 
0.1620625216788859 -0.2896405042846081 -0.35554921952787155 -0.271457113811926 -1.4405077214391067 1.0 
0.6847431914188771 -0.4161618806715004 -0.806995139883728 -0.20011225834841606 -0.3933211246725693 1.381198980108195 
0.9325508785795811 -0.3608911720057531 -0.7295292425075619 -0.3491863374697825 -0.3346836169881615 1.3484714049531334 
0.3783891416382738 -0.6176573630939489 -0.49612677917363296 0.23751084027264496 -1.3415696970825641 1.0 
0.03260812097916562 -0.82490990093475 -0.64132431972465 -0.6453084351941026 -1.0480301550479723 1.0 
0.3367635940383615 -0.8213893034903547 -0.6980536970362132 0.059312301373835495 -0.7454944803865134 1.0831119409901446 
0.6643881714234826 -0.13233445530192633 -0.2552167585450924 -0.28375381295500013 -1.2615699488209384 1.0 
0.45626935072545755 -0.9055918726221376 -0.8422040627427705 -0.3779439631814205 -0.29838893698543234 1.0 
0.33245364421580975 -0.8149921719844391 -0.6876376613654065 -0.5205332693478023 -1.0419740357110732 1.0 
0.46387598754611425 -0.6326765476775034 -0.6158504410273938 -0.3813798251885546 -1.1213030081693856 1.0 
0.226624902449392 -0.39015417855030726 -0.29590677220904454 -0.18589701711081608 -1.2817706270562783 1.0 
0.6344162427955329 -0.4850428843116475 -0.6349537242576568 -0.3057809982277465 -0.8646000924916896 1.0 
0.3562697607545808 -0.8519154270506676 -0.5822048645326788 -0.19878988452016005 -1.1326303252729508 1.0 
0.47104578898722765 -0.7129167190541277 -0.5356712121868507 0.3661703383710721 -1.1655761157551652 1.1060813317369727 
0.18918184926889967 -0.7844124937335835 -0.7958963836394861 -0.6089932750826154 -1.0337052288821242 1.0 
0.3136705476278056 -0.5909964411881853 -0.595732515444628 -0.46053025290446514 -1.2018258244624178 1.0 
0.5269288765159845 -0.4509556917201159 -0.5946478493006587 -0.16190733109926606 -1.2945808577577256 1.0 
0.5619681144930816 -0.7533037179751743 -0.6619630161186336 -0.45736875217655437 -0.7591697256091364 1.0 
0.5077835319702698 -0.6770952010584378 -0.6372367541113357 0.10292006572926145 -1.1188586021677536 1.0 
0.13765212730138437 -1.1318466647149739 -0.4986469816283831 -0.08499424846652595 -0.8383789299694555 1.0 
0.12117065934863033 0.10081784765473849 -0.733438267581496 -0.5463067873015847 -1.1488002281576317 1.0 
0.6095187414681654 -0.7197171887420513 -0.8392889553591746 -0.1845273466929117 -0.9259105223775497 1.0 
0.27543750325889743 -0.7312324966487727 -0.4484603952990871 -0.3104336439678202 -1.0781535332064913 1.0357353443262483 
0.5382122123576245 -0.9057812041032349 -0.6248903295604208 -0.15026768851282257 -0.71338935253859 1.2404443797109768 
-0.13803489218791246 -0.9301983614228843 -0.8189918921005365 -0.5596205974614391 -0.9430511034641564 1.0 
0.5405929489246663 -0.73019794447879 -0.9029254914951522 -0.622160211146286 -0.2234204513951163 1.0 
0.06040213092995283 -0.7645318706638196 -0.6505668032158249 -0.41871407449191245 -1.344335626869485 1.0 
0.6269100229331699 -0.546061429132822 -0.3954551711183243 -0.35459637535996896 -1.0043875167506209 1.0 
0.6352657918468204 -0.6650609306151158 -0.6611039546657682 -0.36231779790142055 -1.1425911517507137 1.0 
0.6569883786215766 -0.6934041966320591 -0.6332098929802495 -0.36619461637640344 -1.320458916503269 1.0 
0.5817382471732848 -0.4504119624597659 -0.697834003740638 -0.36746718332136885 -1.0134759905932222 1.0290671405201113 
1.2973962611493075 -0.4417703577320013 -0.7490432429596613 -0.0033937695811461464 -0.330022427743045 1.0 
0.328086265145295 -0.6766510075049041 -0.6171715795681032 -0.5893186959467006 -0.984705223369141 1.0 
0.368797725099756 -0.8202500025523318 -0.7592014132826673 -0.7890344752142971 -0.8759177359136652 1.0 
0.32683476070787 -0.8079621159114363 -0.9484724163604058 -0.7740978442854566 -0.9018509626558544 1.0 
0.6909779213410854 0.789569197127193 -0.659425769768375 -0.2361865360159169 -0.46279638382409877 1.0 
0.6821134859748648 -0.48803561250500704 -0.25970690542434516 0.7709978479853576 -1.105673975644788 1.0 
0.40739435553377734 -0.5251351656937217 -0.4491459004140172 -0.26393677232504126 -1.0238885442326389 1.0 
0.2271851197587778 -0.759387503885946 -0.6347294521399031 0.5243084470583471 -1.232879412059242 1.0 
0.12069664501088741 -0.5452287506084385 -0.3955586177181866 -0.42026883000718973 -1.2465087877642647 1.0 
0.5708870057865466 -0.836755292554218 -0.4879981819194838 0.20153489339779962 -0.9444207041014431 1.0 
0.616675018420352 -0.45717209417366617 -0.0799666711779348 0.10098292278614368 -1.4772102617032203 1.0 
0.3824130412668972 -0.6019325904890228 -0.7003990882465946 -0.4283990442094417 -1.0296170928755057 1.0 
0.0569930839474146 -0.3823102259830937 -0.6685165116144327 -0.6448726015717564 -1.080015957303945 1.0 
0.6314223517248533 -0.4406571412730712 -0.892234805902604 0.012271048424497812 -0.8742593411027149 1.0 
0.6265664775203275 -1.0420365670963743 -0.7881916807251387 0.14999333685204966 -0.516147896679241 1.0 
0.4059025384658126 -0.24058501214600336 -0.3783943799745751 -0.32972100782057157 -1.2987714928745613 1.0 
0.9295843245319373 -0.470184806803309 -0.314795239050822 -0.14518405632659018 -1.1748833872464293 1.0 
0.4847363624154398 -0.39523892842936276 -0.5501987674704368 -0.2462935865088091 -1.024431477412184 1.0 
0.2202857801629136 -0.9718751775859569 -0.7799635501496912 -0.4405120665407501 -0.9465574386662563 1.0 
0.3642832994489515 -0.8346783460896974 -0.7093270695511089 -0.4276668692003172 -0.9075949133951092 1.0 
0.31177186972993437 -0.37231785734794953 -0.6674070976075862 -0.6626972886756478 -1.0780230258335781 1.0 
0.5717044985642579 -0.8464833647918915 -0.5692591699168252 -0.19617687243882087 -0.8482058332687009 1.0 
0.17537239939547064 -0.623684283722648 -0.5351804016141937 -0.29395433932828097 -0.7666458235785544 1.2345973341304275 
0.4614185933417287 -0.5074070707394667 -0.6921911888233804 -0.5761932668726573 -0.9341473572427186 1.0 
0.526760339251868 -1.2572186387368007 -0.6621495255510127 0.5196586135140534 -0.7360955902243457 1.0 
0.4148983132095558 -0.46059746549028624 -0.5073433439380375 -0.43866847555585226 -1.0934519699093372 1.0 
0.876814045670293 -0.558445326093811 -0.7745168578354648 -0.19122751010043854 -0.8221358297393886 1.0 
0.14134383086590938 -0.7090130132650644 -0.6913034366759722 -0.5825041405127407 -1.0218139105073465 1.0 
0.27940732530051576 -0.6787253109138565 -0.7796081768031199 -0.6394340020906479 -0.9047309270778372 1.0 
0.15891319634939183 -0.7113666245987827 -0.8225833772694312 -0.7537056764430619 -1.0055511427547472 1.0 
0.16597313909043238 -0.2248071993382476 -0.458230432041854 -0.41508395124363345 -1.302186814903783 1.0 
0.7353127325226176 -0.4126555891037396 -0.6059771154520482 -0.40055340367334114 -1.0069467329720407 1.0 
0.42778542874743863 -0.8192041624437859 -0.5456717448092965 0.31157095571651267 -1.1034762459234801 1.0 
0.4205772708438682 -0.5574639737645402 -0.6272927577174853 -0.32681495136565847 -1.1461349823292684 1.0 
0.27020702090232473 -0.7782982168676357 -0.5334947577070358 -0.18834036609225313 -1.0671105674312562 1.0595172480930684 
0.15862696619103442 -0.7445196456133724 -0.8078420160206986 -0.5752952434559573 -0.740276746476516 1.0 
0.19637175331509296 -0.6759748923626283 -0.6221058019368314 -0.5396293296426453 -0.9612477687701925 1.0 
0.3954174385551992 -0.6923169811848731 -0.7066390216254128 -0.2708240340799345 -0.8777413353160183 1.0 
-0.06676958467537168 -0.525622898901134 -0.848928931176726 -0.6533754398865596 -1.013947841128554 1.0 
0.039419329711016374 -0.8642545890552192 -0.8966652356608348 -0.3690407915474048 -0.5898614386391096 1.0 
0.5170275475156112 -0.3624365689189686 -0.41348589313660866 -0.0863228768519696 -1.2919192122637184 1.0 
0.10117271130926 -0.7786409751481432 -0.5458974061295863 -0.5087823915893118 -1.0902396388878977 1.2154296777470457 
0.26406973664982186 -0.7896300767644128 -0.7200264129929179 -0.5617036186640133 -0.94547241480606 1.0 
0.7391283636041336 -0.9162543330027211 -0.7933333124654792 -0.3272417475632189 -0.2494581961128156 1.0 
0.7862944574479883 -0.785077367401239 -0.5751198465279151 -0.23343711024949776 -0.9236260021058146 1.0 
0.14804818866997072 -0.6606025173450747 -0.633708632680929 -0.6194025155838924 -0.9099348643838436 1.0 
0.39244099106827857 -0.689694948777111 -0.5850723380429151 -0.048689823474633645 -1.1629457598335255 1.0 
0.5383173949741092 -0.9663831017658722 -0.7462492436483714 -0.36185321767626716 -0.6387886380321546 1.0 
0.5061511079324448 -0.42971843993753445 -0.7131130411326401 -0.1646975791919249 -0.9454962370064597 1.2685200334086735 
0.5118485232790373 -0.8871727726739798 -0.15914617510690457 0.87878068069744 -0.9687225519104733 1.0 
0.41325485062134126 -0.5079222784224537 -0.47701397214190405 -0.27612870443204435 -1.2570124095463684 1.0 
0.20529866566719918 -0.6587433470492564 -0.6175394323424019 -0.5333870092597416 -1.4204183373903723 1.0 
0.4726431467067189 -0.4891850647804062 -0.7268227159225966 -0.6540308196427382 -1.0344032202337374 1.0 
0.4504836902643757 0.03791924675422447 -0.8826941233520564 0.10968605516396868 -1.0937183112364444 1.0 
0.23725901908170322 -0.9180084469828665 -0.8188451277021099 -0.5467379977601745 -0.7748528186201394 1.0 
0.24125971094004162 -1.0102270336946042 -0.6980927764113921 -0.34824696619417017 -0.6678455576164617 1.0 
0.575498480887866 -0.4903437266134727 -0.33096043433841416 1.043148097362724 -1.1026079712962957 1.0 
0.2064945988452392 -0.6124107947367281 -0.6722278986596144 -0.01788969640004074 -0.6468479496953868 1.0 
0.3058401712407612 -0.5865588576249017 -0.5248950702332192 -0.5325838877282768 -1.1327470946403058 1.0 
0.35174228240599853 -0.825586412668155 -0.7109104798112981 -0.7559733510675845 -0.9482051857780869 1.0 
0.18821293418249782 -0.6468412286750723 -0.7893370550205266 -0.4815304781645112 -0.8899702621637795 1.0 
0.6738860572875276 -0.6639429081762644 -0.8761438428213669 0.8909665853091383 -0.42189164322799405 1.0 
0.8660968758814844 -0.5663018231247046 -0.5357007505506899 0.3931027530772254 -0.9498452472496834 1.0 
0.3186581179434999 -1.0061711936831081 -0.8655779807637651 -0.46149088789556575 -0.5267781005657984 1.041320917004306 
0.5818053852068478 -0.8135395556354043 -0.5434722648808655 -0.3175784058395089 -0.5913383111477413 1.0 
0.5017330215213406 -0.562598757249813 -0.8426292090628331 -0.7391896888617115 -0.8184952347530643 1.0 
0.4165767150835099 -0.7734524332126395 -0.5613603278142875 -0.19081979794394333 -1.0197653485597122 1.0 
0.09437659313573357 -0.7914302591387901 -0.7797460662991619 -0.5099992465985848 -0.8751812988060651 1.0 
0.4617406876590795 -0.7963739343842685 -0.6825466814383233 -0.33576462549036523 -0.7396999629951917 1.0 
0.40111935867843435 -0.6129870833150985 -0.6328656485799815 -0.5149917540350235 -1.0923211737797682 1.0 
0.3750792088999343 -0.6709805581341858 -0.7004042091875635 -0.2561119407279857 -1.0818929986287118 1.0 
-0.05118024759757628 -0.5102088798917469 -0.4389266771737417 -0.0257682045992692 -1.3193654829161954 1.0 
0.5214339046772184 -0.822858395241901 -0.7047545978921635 -0.29076143614256067 -0.6009967838342796 1.0 
0.26945901886914664 -0.9042493001267427 -0.7487587718817257 -0.6538622593884716 -0.9432772500503012 1.0 
0.2125413898120755 -0.3345203756986527 -0.768930760953655 -0.17329778670303203 -1.331047342839993 1.0 
0.30914635762362697 -1.0598030693658869 -0.5497766285412591 -0.10430240379819664 -0.9370477869622221 1.0 
0.4702937657671999 -0.4744238472583611 -0.6539626866213493 -0.6671708302909457 -0.9563925233626371 1.3090533773818527 
0.3030289647192899 -0.5974049185233993 -0.6957421139686626 -0.620148205129783 -1.0202293794803512 1.0 
0.4172725632435066 -0.6278366255707423 -0.8042892004449176 -0.6627398677943867 -0.946621992905735 1.0 
0.4777645164638883 -0.6493862590821826 -0.516639120435547 -0.3380363398778868 -1.261692292965162 1.0 
0.36558098839286773 -0.8410251023597175 -0.8803297956347529 -0.6846725528591066 -0.7741358478728531 1.0 
0.3458410064211216 -0.7133024739768797 -0.8401343396599305 -0.6271914490294317 -0.687941767087193 1.0409148492056162 
0.5522695382356618 -1.0364428898818538 -0.8677939508260973 -0.5355707332152249 -0.32213402560919513 1.0413452522388769 
0.7446910551047787 0.34577632256322205 -0.5576434068893464 -0.3923046620064283 -1.1568666980888622 1.0 
0.5099030701164253 -0.7679227604763914 -0.26056497425808045 -0.17646399544141678 -1.4596544598989558 1.0 
0.5151795258370797 -0.9235048607751992 -0.8253552877425694 -0.3257142579205873 -0.5203501965265117 1.0 
0.3857226113204246 -0.3692728336747136 -0.7293272494696593 -0.6058562391966524 -0.9426182730782543 1.1276091966713946 
0.614858176246198 -0.458777379819073 -0.7189193736590073 0.1442630538929205 -1.0279864305446977 1.0 
0.3866574187659888 -0.8431317615770387 -0.5667998332079388 -0.09188148455958466 -0.8959174117650086 1.0 
0.03508534134681908 0.05720684204585922 -0.1910010348559125 0.3175360276113336 -1.6180989688577392 1.0 
0.06547395927987576 -0.6787977109032829 -0.6872217969886433 -0.5480469802242011 -0.9641983048238129 1.0 
-0.13849717822715593 -0.8708933651570632 -0.7039178484808668 -0.5695465261393569 -1.0872192575543156 1.0 
0.6254003151861572 -0.6796247341842869 -0.612661715376806 -0.21937922448120384 -0.9265877636407756 1.0 
0.510601292573154 -0.9536474452782444 -0.7807254907936999 -0.5988259275976769 -0.8668087729551784 1.0 
0.587299364934877 -0.5818385815848177 -0.7331919983644485 -0.5826781975957906 -0.7413610490133327 1.0 
0.3734827146111377 -0.27734320138861146 -0.0922334903793897 0.1450562023773757 -1.32788923871635 1.0 
0.22350398579898065 -0.6579069181929873 -0.6331043925959947 -0.5474772237584477 -0.9857973093044647 1.0 
0.5001079617420103 -0.7456132251774313 -0.4370173010364842 -0.29748977010385796 -1.1395662515407994 1.0 
0.1175544626487744 -0.6289150154925527 -0.6001098851904196 -0.4366466992503852 -1.3315082103395206 1.0 
0.18439187444087057 -0.6360001824208162 -0.6638304197481187 -0.3033301839875871 -0.9340170236610265 1.0949838638488332 
0.028631855437912964 -1.0190313229863055 -0.7008557167932885 -0.436285673454394 -0.8283268541439526 1.0 
-0.006192376889676236 -0.501723258898888 -0.752618427981982 -0.4050210713345294 -1.0866582894775974 1.0 
-0.01623879179531394 -0.9228931029258662 -0.7258749435193804 0.18750911063944886 -0.8974069438421474 1.0 
0.3513006534920325 -0.9800257870756062 -0.7626368103661059 -0.6470492834372906 -0.7283972289170779 1.0 
0.1241039068110275 -0.4816518036302348 -0.6733431769258287 -0.6379154674812348 -1.1763419508055517 1.0633606448864663 
0.264257093167511 -0.4667873034035532 -0.6027938987545733 -0.3447096560064396 -1.2956379978792318 1.0 
0.2676238059017182 -0.5399840516359338 -0.624846571630938 -0.4560157945882039 -1.2268855554451858 1.0 
0.027949973741196194 -0.48950100044174966 -0.6948034730193673 -0.5111068140228104 -1.1193674818891326 1.0 
0.25435246829947744 -0.9677676019624872 -0.6089433584637078 -0.3413112142014221 -0.8417862069949155 1.0 
0.3207910927055135 -0.37394394219809646 -0.7637022981649838 -0.05474859357283167 -0.772721311527112 1.0 
0.5185319484829369 -0.9487658798771077 -0.746058074539246 -0.6298617043686032 -0.8183102108765232 1.0 
0.18752206459736592 -1.0999944785700675 -0.7370226715104634 -0.5254490284046293 -0.5718327268657618 1.0 
0.27433493774949774 -0.5521922143375675 -0.6355323355773468 -0.42191787350448245 -1.2583260668280178 1.0 
0.540022505358503 -0.4559835334843075 -0.6044908669389795 -0.2774763399928385 -1.061763952693459 1.0 
0.35179246609949333 -0.7026754230691883 -0.5163274363968546 -0.4711176975130936 -1.218014241535485 1.0 
0.3661576216259312 -0.7277681517596318 -0.7159289396572646 -0.7259910265128307 -0.885438705310479 1.0 
0.34926286864596423 -0.6077282822393457 -0.9332897893253751 -0.078235325467174 -1.0127052886363024 1.122576192095676 
0.44194138778387404 -0.32152606964821784 -0.4627175117702511 -0.4023006919304662 -1.1660833947029314 1.0 
0.5767003661195224 -0.5498808395720257 -0.5820219056382242 -0.24706735861309706 -0.9982302840984044 1.0 
0.4189104804172634 -0.39156169422259857 -0.7207976054079057 -0.6660510765531747 -0.8384351418212246 0.906538986891325 
0.5067839684943365 -0.3805715924395978 -0.609408011408027 0.2824933096577532 -1.5068710689030091 1.0 
0.35992343864887055 -0.5950304700863662 -0.5812982738604746 -0.3264467813864899 -1.378766672118892 1.0 
0.04301894271824774 -0.5769224930162626 -0.6696132850119717 -0.4513528469180837 -1.0424676331618603 1.0 
0.8555328356642339 -0.758893132824812 -0.8654988786500475 0.13746202653717343 -0.3985830184911086 1.0 
0.22167082385576967 -0.5055355189523497 -0.2606270509600244 1.0175636774063794 -0.9986420144842372 1.0 
0.2709493089367264 -0.8959622506894279 -0.7160105638696733 -0.5742174503206039 -0.7892661476759616 1.0 
0.5799099771228968 -0.28854784809060485 -0.573543555604504 -0.47692273548187164 -1.1069047586091878 1.0 
0.24885069435343285 -0.9669914446465244 -0.730296100095526 -0.39627618327005143 -0.5860250767794227 1.0 
0.2761146119532339 -0.5653737962682732 -0.581661037768567 -0.5499877744846002 -0.8065545166875091 1.3157596489330143 
0.30987013624605997 -0.41514170156352814 -0.4046589673884225 -0.07030814204549887 -1.3579246026869727 1.0 
0.3256983573994457 -0.8017945381866036 -0.6805018809546557 -0.5127506856788522 -1.1039166992157288 1.0536892109148206 
0.4871613379259466 -1.0638159691457179 -0.6766645009785488 -0.3985279882318989 -0.6444055889136919 1.0 
0.35984421184357357 -1.081580014132852 -0.6959764893310507 0.9223000439217355 -0.30812255368378494 1.0 
0.3868551578064015 -0.8191076840118396 -0.9889094787103518 -0.24001095402775474 -0.27619143947773606 1.0 
0.4774888076488233 -0.24488904038567308 -0.8083408069939416 -0.6034184784844757 -0.6625827520490633 1.3198375996179503 
0.17672963419042226 -0.33616727992883777 -0.7951487082058162 -0.2709433727383265 -1.159957473308023 1.0 
0.13848827347463047 -0.7079317717684395 -0.7000593974533982 0.5394265616019497 -1.003676217904991 1.0 
0.4538026977063053 -0.725167241181094 -0.4586235300473528 -0.2725575216420511 -1.212724664170168 1.0 
0.1935082791151766 -0.9211047427544686 -0.862593162556979 0.05584206483408874 -0.7062691902136972 1.091835297636829 
0.038831096412737624 -0.5388305153756073 -0.6608122653833548 -0.6496670246666251 -1.1672704484773608 1.0 
0.49715086571426714 -0.5960340283627238 -0.7459096983190734 -0.30547976515923936 -0.89289056091745 1.0 
0.7217884128628722 -0.4309912976524644 -0.33351233114568285 0.5261435079169818 -1.3044347843189286 1.0 
0.5973624442426506 -0.7783333592272265 -0.756453980272628 -0.11108148614218315 -1.0584099074025495 1.0 
0.6056483105456041 -0.8840024411337435 -0.7757087639159375 0.14586632410285336 -0.5971144502156165 1.0 
0.24704135167457414 -0.5624616896629292 -0.42735929687290103 -0.16011495492931654 -1.5624480869045019 1.0 
0.20670119553971159 -0.5651976065421531 -0.7025497264869734 -0.7899917571419667 -1.21725698224483 1.0 
-0.09021977617589738 -0.6293572784692708 -0.8139220471629527 -0.5786858655665531 -0.8298428869358699 1.0 
0.2146692307732865 -0.7676486031728039 -0.37857134365535267 0.17266808861007063 -1.4112172288792852 1.0 
0.424832461967865 -0.4195301095755847 -0.8065678035158861 -0.5605931245629403 -0.7894704282614929 1.141273273762818 
0.3402516365332265 -0.44071500014847564 -0.6716147394305569 -0.4143768823190735 -1.1167821610659516 1.0 
0.5271951221010783 -0.9167373147524804 -0.7490144595517021 -0.261214283764146 -0.4021187502431012 1.0 
0.17357013701271792 -0.30245965133895025 -0.7534852776351534 -0.6554204003376602 -1.3167715251131282 1.054876900635233 
0.17719579225259371 -0.6199152911697907 -0.5388858233303206 -0.38868165811762356 -1.0127976778354397 1.0 
0.15521897912167743 -0.8713261403738359 -0.7119579893752623 -0.5928604381226926 -0.9220284730801557 1.0 
0.5075576336387805 -0.6426859023265392 -0.3016010170495261 0.07667111647422858 -1.1014354937684703 1.0 
0.465964242516886 -1.0485048088991813 -0.41441027715985423 0.08711192054294813 -1.0393936784395663 1.0 
0.9720758415781665 -0.3445412641072758 -1.0356847728166088 0.03840656972961526 -0.23116745340070854 1.1765037685571305 
0.4020779699498613 -0.5171252733004413 -0.6106186421396453 -0.5150277050887371 -1.0811383969091437 1.0074539806920546 
0.528171010324396 -0.7135436841548048 -0.7604598854705406 0.01865295735931142 -0.9930093234120988 1.0 
0.28344300629348196 -0.6651709817437567 -0.6315624814433151 -0.35550488659190627 -1.1645676643311476 1.0 
0.651812419389082 -0.35159065657743627 -0.8288231722021803 -0.6025542583112603 -0.8441722068725145 1.0 
0.926511465382604 -0.6950492437814106 -0.6741636804464086 -0.1857157895065764 -0.7455345874650071 1.0 
0.10769059866984552 -0.4795119530897318 -0.5301467961368548 -0.22562580461508028 -1.2097858826361287 1.0 
0.26166241989837014 -0.1414849143743143 -0.6867157230064752 -0.5570576559665666 -1.2697650766559943 1.0 
0.49341647126417737 -0.4728715775338454 -0.7070059916740363 -0.4775428435105975 -0.7572377332493271 1.0 
0.5363650930608428 -0.6910449421555191 -0.7761868438205902 -0.6139036831652269 -0.9621452109713599 1.0 
0.5932762671773896 -0.5718680757354357 -0.7097241811334046 -0.15429334169146014 -0.1251829791537479 1.4508856580965144 
0.3735921320809238 -0.3117746691626419 -0.6455513860603598 -0.6277121662587581 -0.5992878769305446 1.3347363708179967 
0.06224025008811482 -0.6602825956304875 -0.7357146450369378 -0.6849515762229262 -1.0704295660037606 1.0 
0.5911672600168975 -0.5380532891525501 -0.6937845233182591 -0.10306302100322574 -1.1254754646996912 1.0 
0.35577434134046465 -0.8470449888073144 -0.5526418721329251 -0.2547385243138221 -1.3715919487316746 1.0 
0.2798983883124171 -0.4223877584775787 -0.46203758285763985 -0.4005937209308994 -1.1675486470263718 1.0 
-0.05115454637718178 -0.6019746611169243 -0.8271012130754768 -0.6949983979180602 -0.9202329635293619 1.0 
0.5064176272440997 -0.4963942475745813 -0.537803929840325 -0.014221662102682282 -1.2264587442438921 1.0 
0.49131329483217945 -0.3619989664125065 -0.8397613876384475 -0.2744288977325838 -0.9161141976897107 1.0 
0.32380193986334355 -0.7189461081685243 -0.6389457441266155 -0.25428891030487305 -0.5320830756299646 1.2261736245272616 
0.34573117143968657 -0.5242502847040236 -0.5010511477569072 -0.5273392356695926 -1.1324621233302767 1.0 
0.5478317360684631 -0.5159453782434302 -0.6924186294816127 -0.7694108941017855 -0.6706158438103305 1.069673200212949 
0.22301170953866295 -0.9546757041522839 -0.8224728175452509 -0.5306128290185658 -0.8035225035226065 1.0 
0.21735051128287416 -0.5849380338441196 -0.7995343776815041 -0.8446559480533108 -0.9033427446075433 1.0 
0.234977469179865 -0.909942607333479 -0.7880204851407367 -0.6041555389331061 -0.6788663673082185 1.0 
0.5577422974367514 -0.619445501651545 -0.5766366579372025 -0.22682038246834013 -1.0399592099067352 1.0 
0.21850132303146785 -1.054994721521359 -0.7833280600536169 0.2642517549380675 -0.9549953420760411 1.0 
